{"learner":{"attributes":{"scikit_learn":"{\"_estimator_type\": \"classifier\"}"},"feature_names":[],"feature_types":[],"gradient_booster":{"model":{"gbtree_model_param":{"num_parallel_tree":"1","num_trees":"300"},"iteration_indptr":[0,3,6,9,12,15,18,21,24,27,30,33,36,39,42,45,48,51,54,57,60,63,66,69,72,75,78,81,84,87,90,93,96,99,102,105,108,111,114,117,120,123,126,129,132,135,138,141,144,147,150,153,156,159,162,165,168,171,174,177,180,183,186,189,192,195,198,201,204,207,210,213,216,219,222,225,228,231,234,237,240,243,246,249,252,255,258,261,264,267,270,273,276,279,282,285,288,291,294,297,300],"tree_info":[0,1,2,0,1,2,0,1,2,0,1,2,0,1,2,0,1,2,0,1,2,0,1,2,0,1,2,0,1,2,0,1,2,0,1,2,0,1,2,0,1,2,0,1,2,0,1,2,0,1,2,0,1,2,0,1,2,0,1,2,0,1,2,0,1,2,0,1,2,0,1,2,0,1,2,0,1,2,0,1,2,0,1,2,0,1,2,0,1,2,0,1,2,0,1,2,0,1,2,0,1,2,0,1,2,0,1,2,0,1,2,0,1,2,0,1,2,0,1,2,0,1,2,0,1,2,0,1,2,0,1,2,0,1,2,0,1,2,0,1,2,0,1,2,0,1,2,0,1,2,0,1,2,0,1,2,0,1,2,0,1,2,0,1,2,0,1,2,0,1,2,0,1,2,0,1,2,0,1,2,0,1,2,0,1,2,0,1,2,0,1,2,0,1,2,0,1,2,0,1,2,0,1,2,0,1,2,0,1,2,0,1,2,0,1,2,0,1,2,0,1,2,0,1,2,0,1,2,0,1,2,0,1,2,0,1,2,0,1,2,0,1,2,0,1,2,0,1,2,0,1,2,0,1,2,0,1,2,0,1,2,0,1,2,0,1,2,0,1,2,0,1,2,0,1,2,0,1,2,0,1,2,0,1,2,0,1,2,0,1,2,0,1,2,0,1,2,0,1,2],"trees":[{"base_weights":[8.053687E-2,1.3910035E0,-2.2064519E-1,4.3494424E-1,1.2413793E-1],"categories":[],"categories_nodes":[],"categories_segments":[],"categories_sizes":[],"default_left":[0,0,0,0,0],"id":0,"left_children":[1,3,-1,-1,-1],"loss_changes":[8.954296E1,1.2455177E0,0E0,0E0,0E0],"parents":[2147483647,0,0,1,1],"right_children":[2,4,-1,-1,-1],"split_conditions":[-4.5780638E-1,6.733507E-3,-2.2064519E-1,4.3494424E-1,1.2413793E-1],"split_indices":[3,8,0,0,0],"split_type":[0,0,0,0,0],"sum_hessian":[8.177777E1,3.1111109E1,5.0666664E1,2.8888887E1,2.222222E0],"tree_param":{"num_deleted":"0","num_feature":"10","num_nodes":"5","size_leaf_vector":"1"}},{"base_weights":[-4.0268463E-1,-1.2348673E-1,-2.1906161E-1,-2.1799311E-1,1.1954887E0,4.1538465E-1,-3.600001E-2],"categories":[],"categories_nodes":[],"categories_segments":[],"categories_sizes":[],"default_left":[0,0,0,0,0,0,0],"id":1,"left_children":[1,3,-1,-1,5,-1,-1],"loss_changes":[7.479286E0,3.737556E1,0E0,0E0,3.8427773E0,0E0,0E0],"parents":[2147483647,0,0,1,1,4,4],"right_children":[2,4,-1,-1,6,-1,-1],"split_conditions":[-6.407142E-2,-4.5780638E-1,-2.1906161E-1,-2.1799311E-1,1.4614739E-1,4.1538465E-1,-3.600001E-2],"split_indices":[3,3,0,0,0,0,0],"split_type":[0,0,0,0,0,0,0],"sum_hessian":[8.177777E1,4.4888885E1,3.6888885E1,3.1111109E1,1.3777777E1,1.1999999E1,1.7777777E0],"tree_param":{"num_deleted":"0","num_feature":"10","num_nodes":"7","size_leaf_vector":"1"}},{"base_weights":[3.221476E-1,-6.246974E-1,4.381232E-1,-6.8571436E-1,1.6216213E-1,-2.1939062E-1,-3.2511625E-8,-1.2857145E-1,1.7999999E-1,-1.2857145E-1,1.2857142E-1],"categories":[],"categories_nodes":[],"categories_segments":[],"categories_sizes":[],"default_left":[0,0,0,0,0,0,0,0,0,0,0],"id":2,"left_children":[1,3,-1,5,7,-1,9,-1,-1,-1,-1],"loss_changes":[9.012678E1,2.3144035E0,0E0,1.3372402E0,1.3204634E0,0E0,8.5714287E-1,0E0,0E0,0E0,0E0],"parents":[2147483647,0,0,1,1,3,3,4,4,6,6],"right_children":[2,4,-1,6,8,-1,10,-1,-1,-1,-1],"split_conditions":[-6.407142E-2,1.3830538E-1,4.381232E-1,1.3256503E0,-5.463664E-1,-2.1939062E-1,-4.4743586E-1,-1.2857145E-1,1.7999999E-1,-1.2857145E-1,1.2857142E-1],"split_indices":[3,9,0,4,0,0,0,0,0,0,0],"split_type":[0,0,0,0,0,0,0,0,0,0,0],"sum_hessian":[8.177777E1,4.4888885E1,3.6888885E1,4.1777775E1,3.111111E0,3.9111107E1,2.6666665E0,1.3333333E0,1.7777777E0,1.3333333E0,1.3333333E0],"tree_param":{"num_deleted":"0","num_feature":"10","num_nodes":"11","size_leaf_vector":"1"}},{"base_weights":[6.4949065E-2,9.5490307E-1,-1.9688796E-1,3.0008888E-1,3.3150288E-1,-2.8000923E-2,1.8359853E-1],"categories":[],"categories_nodes":[],"categories_segments":[],"categories_sizes":[],"default_left":[0,0,0,0,0,0,0],"id":3,"left_children":[1,3,-1,-1,5,-1,-1],"loss_changes":[5.1468338E1,6.832924E-1,0E0,0E0,5.2542555E-1,0E0,0E0],"parents":[2147483647,0,0,1,1,4,4],"right_children":[2,4,-1,-1,6,-1,-1],"split_conditions":[-4.5780638E-1,1.2253089E0,-1.9688796E-1,3.0008888E-1,-4.434055E-1,-2.8000923E-2,1.8359853E-1],"split_indices":[3,5,0,0,1,0,0],"split_type":[0,0,0,0,0,0,0],"sum_hessian":[7.820833E1,3.486446E1,4.334387E1,3.1934553E1,2.9299088E0,1.4304938E0,1.4994147E0],"tree_param":{"num_deleted":"0","num_feature":"10","num_nodes":"7","size_leaf_vector":"1"}},{"base_weights":[-3.420017E-1,-1.0068295E-1,-1.9504231E-1,-1.9449267E-1,8.3871365E-1,2.8837204E-1,-3.285599E-2],"categories":[],"categories_nodes":[],"categories_segments":[],"categories_sizes":[],"default_left":[0,0,0,0,0,0,0],"id":4,"left_children":[1,3,-1,-1,5,-1,-1],"loss_changes":[5.468649E0,2.262358E1,0E0,0E0,1.9923573E0,0E0,0E0],"parents":[2147483647,0,0,1,1,4,4],"right_children":[2,4,-1,-1,6,-1,-1],"split_conditions":[-6.407142E-2,-4.5780638E-1,-1.9504231E-1,-1.9449267E-1,1.4614739E-1,2.8837204E-1,-3.285599E-2],"split_indices":[3,3,0,0,0,0,0],"split_type":[0,0,0,0,0,0,0],"sum_hessian":[7.342338E1,4.192031E1,3.150307E1,2.6678066E1,1.5242244E1,1.3485936E1,1.7563077E0],"tree_param":{"num_deleted":"0","num_feature":"10","num_nodes":"7","size_leaf_vector":"1"}},{"base_weights":[2.4841689E-1,-5.4443693E-1,2.9818216E-1,-5.870694E-1,1.16472945E-1,-6.310079E-1,-4.0017374E-2,1.1585282E-2,-1.968203E-1,1.2722695E-1,-1.3067195E-1],"categories":[],"categories_nodes":[],"categories_segments":[],"categories_sizes":[],"default_left":[0,0,0,0,0,0,0,0,0,0,0],"id":5,"left_children":[1,3,-1,5,-1,7,9,-1,-1,-1,-1],"loss_changes":[4.886364E1,1.828929E0,0E0,9.0982914E-1,0E0,6.284704E-1,9.1169757E-1,0E0,0E0,0E0,0E0],"parents":[2147483647,0,0,1,1,3,3,5,5,6,6],"right_children":[2,4,-1,6,-1,8,10,-1,-1,-1,-1],"split_conditions":[-6.407142E-2,1.0568743E0,2.9818216E-1,1.3256503E0,1.16472945E-1,-1.2818216E0,-6.436434E-1,1.1585282E-2,-1.968203E-1,1.2722695E-1,-1.3067195E-1],"split_indices":[3,9,0,4,0,6,1,0,0,0,0],"split_type":[0,0,0,0,0,0,0,0,0,0,0],"sum_hessian":[8.075135E1,3.926418E1,4.148717E1,3.7902237E1,1.3619422E0,3.494225E1,2.959986E0,1.2409741E0,3.3701275E1,1.328783E0,1.6312029E0],"tree_param":{"num_deleted":"0","num_feature":"10","num_nodes":"11","size_leaf_vector":"1"}},{"base_weights":[5.652939E-2,7.6297665E-1,-1.8145105E-1,2.3988108E-1,5.8894485E-2],"categories":[],"categories_nodes":[],"categories_segments":[],"categories_sizes":[],"default_left":[0,0,0,0,0],"id":6,"left_children":[1,3,-1,-1,-1],"loss_changes":[3.3278893E1,5.570946E-1,0E0,0E0,0E0],"parents":[2147483647,0,0,1,1],"right_children":[2,4,-1,-1,-1],"split_conditions":[-4.5780638E-1,6.733507E-3,-1.8145105E-1,2.3988108E-1,5.8894485E-2],"split_indices":[3,8,0,0,0],"split_type":[0,0,0,0,0],"sum_hessian":[6.92397E1,3.340455E1,3.5835155E1,3.0990366E1,2.414182E0],"tree_param":{"num_deleted":"0","num_feature":"10","num_nodes":"5","size_leaf_vector":"1"}},{"base_weights":[-3.0518466E-1,-8.894772E-2,-1.7918703E-1,-1.7879203E-1,6.629899E-1,2.3134905E-1,-3.5806045E-2],"categories":[],"categories_nodes":[],"categories_segments":[],"categories_sizes":[],"default_left":[0,0,0,0,0,0,0],"id":7,"left_children":[1,3,-1,-1,5,-1,-1],"loss_changes":[3.974794E0,1.4813415E1,0E0,0E0,1.4210572E0,0E0,0E0],"parents":[2147483647,0,0,1,1,4,4],"right_children":[2,4,-1,-1,6,-1,-1],"split_conditions":[-6.407142E-2,-4.5780638E-1,-1.7918703E-1,-1.7879203E-1,1.4614739E-1,2.3134905E-1,-3.5806045E-2],"split_indices":[3,3,0,0,0,0,0],"split_type":[0,0,0,0,0,0,0],"sum_hessian":[6.276928E1,3.6818295E1,2.5950983E1,2.2114248E1,1.4704048E1,1.2930461E1,1.7735869E0],"tree_param":{"num_deleted":"0","num_feature":"10","num_nodes":"7","size_leaf_vector":"1"}},{"base_weights":[2.1002142E-1,-4.8442125E-1,2.3872884E-1,-5.493038E-1,1.401784E-1,-1.8062066E-1,5.309649E-2,-1.0194569E-1,1.2892602E-1,-1.0623852E-1,1.2099039E-1],"categories":[],"categories_nodes":[],"categories_segments":[],"categories_sizes":[],"default_left":[0,0,0,0,0,0,0,0,0,0,0],"id":8,"left_children":[1,3,-1,5,7,-1,9,-1,-1,-1,-1],"loss_changes":[3.0387644E1,1.4698372E0,0E0,1.0280771E0,7.063216E-1,0E0,6.338123E-1,0E0,0E0,0E0,0E0],"parents":[2147483647,0,0,1,1,3,3,4,4,6,6],"right_children":[2,4,-1,6,8,-1,10,-1,-1,-1,-1],"split_conditions":[-6.407142E-2,1.3830538E-1,2.3872884E-1,1.3256503E0,-5.463664E-1,-1.8062066E-1,-2.7852017E-1,-1.0194569E-1,1.2892602E-1,-1.0623852E-1,1.2099039E-1],"split_indices":[3,9,0,4,0,0,5,0,0,0,0],"split_type":[0,0,0,0,0,0,0,0,0,0,0],"sum_hessian":[7.2758194E1,3.3369267E1,3.9388927E1,3.0338314E1,3.0309527E0,2.7895466E1,2.4428487E0,1.0752E0,1.9557527E0,1.124294E0,1.3185546E0],"tree_param":{"num_deleted":"0","num_feature":"10","num_nodes":"11","size_leaf_vector":"1"}},{"base_weights":[5.0739594E-2,6.5230894E-1,-1.7044638E-1,2.070354E-1,4.273161E-2],"categories":[],"categories_nodes":[],"categories_segments":[],"categories_sizes":[],"default_left":[0,0,0,0,0],"id":9,"left_children":[1,3,-1,-1,-1],"loss_changes":[2.2527779E1,4.9245644E-1,0E0,0E0,0E0],"parents":[2147483647,0,0,1,1],"right_children":[2,4,-1,-1,-1],"split_conditions":[-4.5780638E-1,6.733507E-3,-1.7044638E-1,2.070354E-1,4.273161E-2],"split_indices":[3,8,0,0,0],"split_type":[0,0,0,0,0],"sum_hessian":[5.8513042E1,2.9644445E1,2.8868595E1,2.7268827E1,2.375618E0],"tree_param":{"num_deleted":"0","num_feature":"10","num_nodes":"5","size_leaf_vector":"1"}},{"base_weights":[-2.7969983E-1,-8.0596484E-2,-1.6783981E-1,-1.6753358E-1,5.6232077E-1,1.9877331E-1,-3.0024529E-2],"categories":[],"categories_nodes":[],"categories_segments":[],"categories_sizes":[],"default_left":[0,0,0,0,0,0,0],"id":10,"left_children":[1,3,-1,-1,5,-1,-1],"loss_changes":[2.9033594E0,1.0173387E1,0E0,0E0,1.0080914E0,0E0,0E0],"parents":[2147483647,0,0,1,1,4,4],"right_children":[2,4,-1,-1,6,-1,-1],"split_conditions":[-6.407142E-2,-4.5780638E-1,-1.6783981E-1,-1.6753358E-1,1.4614739E-1,1.9877331E-1,-3.0024529E-2],"split_indices":[3,3,0,0,0,0,0],"split_type":[0,0,0,0,0,0,0],"sum_hessian":[5.1932217E1,3.1092482E1,2.0839737E1,1.791129E1,1.3181191E1,1.1448202E1,1.7329888E0],"tree_param":{"num_deleted":"0","num_feature":"10","num_nodes":"7","size_leaf_vector":"1"}},{"base_weights":[1.8642189E-1,-4.370107E-1,2.0634703E-1,-4.857579E-1,9.581143E-2,1.3951149E-2,-5.419884E-1,-1.05764344E-1,1.2521571E-1,-1.7222874E-1,3.2180015E-2],"categories":[],"categories_nodes":[],"categories_segments":[],"categories_sizes":[],"default_left":[0,0,0,0,0,0,0,0,0,0,0],"id":11,"left_children":[1,3,-1,5,-1,7,9,-1,-1,-1,-1],"loss_changes":[2.0062307E1,1.2167354E0,0E0,7.7874374E-1,0E0,7.017443E-1,5.763602E-1,0E0,0E0,0E0,0E0],"parents":[2147483647,0,0,1,1,3,3,5,5,6,6],"right_children":[2,4,-1,6,-1,8,10,-1,-1,-1,-1],"split_conditions":[-6.407142E-2,1.0568743E0,2.0634703E-1,-7.437623E-1,9.581143E-2,6.924812E-2,2.2097461E0,-1.05764344E-1,1.2521571E-1,-1.7222874E-1,3.2180015E-2],"split_indices":[3,9,0,1,0,7,1,0,0,0,0],"split_type":[0,0,0,0,0,0,0,0,0,0,0],"sum_hessian":[6.2219288E1,2.7791864E1,3.4427425E1,2.644531E1,1.3465545E0,2.7508602E0,2.369445E1,1.5075052E0,1.243355E0,2.268822E1,1.0062311E0],"tree_param":{"num_deleted":"0","num_feature":"10","num_nodes":"11","size_leaf_vector":"1"}},{"base_weights":[4.6000205E-2,5.799784E-1,-1.623318E-1,1.8807195E-1,9.324358E-2,-6.365575E-2,1.1148017E-1],"categories":[],"categories_nodes":[],"categories_segments":[],"categories_sizes":[],"default_left":[0,0,0,0,0,0,0],"id":12,"left_children":[1,3,-1,-1,5,-1,-1],"loss_changes":[1.5706359E1,5.398874E-1,0E0,0E0,3.7456244E-1,0E0,0E0],"parents":[2147483647,0,0,1,1,4,4],"right_children":[2,4,-1,-1,6,-1,-1],"split_conditions":[-4.5780638E-1,1.2253089E0,-1.623318E-1,1.8807195E-1,-1.0877823E0,-6.365575E-2,1.1148017E-1],"split_indices":[3,5,0,0,3,0,0],"split_type":[0,0,0,0,0,0,0],"sum_hessian":[4.8098675E1,2.5195389E1,2.2903286E1,2.2717154E1,2.478236E0,1.2950035E0,1.1832324E0],"tree_param":{"num_deleted":"0","num_feature":"10","num_nodes":"7","size_leaf_vector":"1"}},{"base_weights":[-2.6121956E-1,-7.560893E-2,-1.5914845E-1,-1.5886045E-1,4.8879445E-1,1.781294E-1,-3.0649079E-2],"categories":[],"categories_nodes":[],"categories_segments":[],"categories_sizes":[],"default_left":[0,0,0,0,0,0,0],"id":13,"left_children":[1,3,-1,-1,5,-1,-1],"loss_changes":[2.1172316E0,7.103797E0,0E0,0E0,8.317001E-1,0E0,0E0],"parents":[2147483647,0,0,1,1,4,4],"right_children":[2,4,-1,-1,6,-1,-1],"split_conditions":[-6.407142E-2,-4.5780638E-1,-1.5914845E-1,-1.5886045E-1,1.4614739E-1,1.781294E-1,-3.0649079E-2],"split_indices":[3,3,0,0,0,0,0],"split_type":[0,0,0,0,0,0,0],"sum_hessian":[4.216379E1,2.5717548E1,1.6446243E1,1.4288051E1,1.1429499E1,9.701499E0,1.7279992E0],"tree_param":{"num_deleted":"0","num_feature":"10","num_nodes":"7","size_leaf_vector":"1"}},{"base_weights":[1.713472E-1,-4.1825745E-1,6.021161E-1,-4.7523007E-1,8.6387664E-2,1.7051546E-2,1.863284E-1,-1.6340134E-1,7.025249E-2,-9.2313096E-2,1.1631357E-1],"categories":[],"categories_nodes":[],"categories_segments":[],"categories_sizes":[],"default_left":[0,0,0,0,0,0,0,0,0,0,0],"id":14,"left_children":[1,3,5,7,-1,-1,-1,-1,9,-1,-1],"loss_changes":[1.3617025E1,1.0544271E0,2.8360653E-1,8.519182E-1,0E0,0E0,0E0,0E0,5.166375E-1,0E0,0E0],"parents":[2147483647,0,0,1,1,2,2,3,3,8,8],"right_children":[2,4,6,8,-1,-1,-1,-1,10,-1,-1],"split_conditions":[-2.215654E-1,1.0568743E0,-6.407142E-2,1.3256503E0,8.6387664E-2,1.7051546E-2,1.863284E-1,-1.6340134E-1,-1.9937128E-1,-9.2313096E-2,1.1631357E-1],"split_indices":[3,9,3,4,0,0,0,0,5,0,0],"split_type":[0,0,0,0,0,0,0,0,0,0,0],"sum_hessian":[5.1622284E1,2.180553E1,2.9816753E1,2.048039E1,1.32514E0,1.1372395E0,2.8679514E1,1.8168936E1,2.3114562E0,1.0691959E0,1.2422603E0],"tree_param":{"num_deleted":"0","num_feature":"10","num_nodes":"11","size_leaf_vector":"1"}},{"base_weights":[4.1510053E-2,5.281197E-1,-1.5588552E-1,1.7384289E-1,5.1388334E-2,-6.556943E-2,9.6307956E-2],"categories":[],"categories_nodes":[],"categories_segments":[],"categories_sizes":[],"default_left":[0,0,0,0,0,0,0],"id":15,"left_children":[1,3,-1,-1,5,-1,-1],"loss_changes":[1.1135556E1,5.0393295E-1,0E0,0E0,3.0434877E-1,0E0,0E0],"parents":[2147483647,0,0,1,1,4,4],"right_children":[2,4,-1,-1,6,-1,-1],"split_conditions":[-4.5780638E-1,8.593116E-1,-1.5588552E-1,1.7384289E-1,-3.3619913E-1,-6.556943E-2,9.6307956E-2],"split_indices":[3,4,0,0,6,0,0],"split_type":[0,0,0,0,0,0,0],"sum_hessian":[3.8777027E1,2.0798998E1,1.797803E1,1.8581732E1,2.2172658E0,1.2026379E0,1.0146279E0],"tree_param":{"num_deleted":"0","num_feature":"10","num_nodes":"7","size_leaf_vector":"1"}},{"base_weights":[-2.4478908E-1,-6.963632E-2,-1.519889E-1,-1.515598E-1,4.3355498E-1,5.262684E-1,-5.603117E-2,3.3032563E-2,1.727947E-1],"categories":[],"categories_nodes":[],"categories_segments":[],"categories_sizes":[],"default_left":[0,0,0,0,0,0,0,0,0],"id":16,"left_children":[1,3,-1,-1,5,7,-1,-1,-1],"loss_changes":[1.5657046E0,5.0574965E0,0E0,0E0,7.183368E-1,1.3604498E-1,0E0,0E0,0E0],"parents":[2147483647,0,0,1,1,4,4,5,5],"right_children":[2,4,-1,-1,6,8,-1,-1,-1],"split_conditions":[-6.407142E-2,-4.5780638E-1,-1.519889E-1,-1.515598E-1,1.0724861E-1,-6.951509E-1,-5.603117E-2,3.3032563E-2,1.727947E-1],"split_indices":[3,3,0,0,1,4,0,0,0],"split_type":[0,0,0,0,0,0,0,0,0],"sum_hessian":[3.390866E1,2.1076157E1,1.2832504E1,1.1295107E1,9.781049E0,8.6411705E0,1.1398783E0,1.2651684E0,7.3760023E0],"tree_param":{"num_deleted":"0","num_feature":"10","num_nodes":"9","size_leaf_vector":"1"}},{"base_weights":[1.6010197E-1,-3.8197672E-1,5.568821E-1,-4.4443518E-1,7.858737E-2,1.9657405E-2,1.7281583E-1,8.349219E-2,-1.5726864E-1,-8.26613E-2,1.1320003E-1],"categories":[],"categories_nodes":[],"categories_segments":[],"categories_sizes":[],"default_left":[0,0,0,0,0,0,0,0,0,0,0],"id":17,"left_children":[1,3,5,7,-1,-1,-1,9,-1,-1,-1],"loss_changes":[9.474481E0,8.721998E-1,2.0028114E-1,7.8099346E-1,0E0,0E0,0E0,4.3739134E-1,0E0,0E0,0E0],"parents":[2147483647,0,0,1,1,2,2,3,3,7,7],"right_children":[2,4,6,8,-1,-1,-1,10,-1,-1,-1],"split_conditions":[-2.215654E-1,1.0568743E0,-6.407142E-2,-7.437623E-1,7.858737E-2,1.9657405E-2,1.7281583E-1,-2.2881217E-1,-1.5726864E-1,-8.26613E-2,1.1320003E-1],"split_indices":[3,9,3,1,0,0,0,4,0,0,0],"split_type":[0,0,0,0,0,0,0,0,0,0,0],"sum_hessian":[4.206074E1,1.779146E1,2.426928E1,1.650078E1,1.29068E0,1.0772233E0,2.3192057E1,2.1604626E0,1.4340318E1,1.0004066E0,1.160056E0],"tree_param":{"num_deleted":"0","num_feature":"10","num_nodes":"11","size_leaf_vector":"1"}},{"base_weights":[3.703034E-2,4.8779115E-1,-1.5036087E-1,1.6327222E-1,6.7278245E-3],"categories":[],"categories_nodes":[],"categories_segments":[],"categories_sizes":[],"default_left":[0,0,0,0,0],"id":18,"left_children":[1,3,-1,-1,-1],"loss_changes":[7.997072E0,4.5794487E-1,0E0,0E0,0E0],"parents":[2147483647,0,0,1,1],"right_children":[2,4,-1,-1,-1],"split_conditions":[-4.5780638E-1,1.2253089E0,-1.5036087E-1,1.6327222E-1,6.7278245E-3],"split_indices":[3,5,0,0,0],"split_type":[0,0,0,0,0],"sum_hessian":[3.0954365E1,1.689708E1,1.4057286E1,1.4918008E1,1.9790708E0],"tree_param":{"num_deleted":"0","num_feature":"10","num_nodes":"5","size_leaf_vector":"1"}},{"base_weights":[-2.2982214E-1,-6.405961E-2,-1.4561772E-1,-1.4496316E-1,3.8332763E-1,1.5351559E-1,-3.7019122E-2],"categories":[],"categories_nodes":[],"categories_segments":[],"categories_sizes":[],"default_left":[0,0,0,0,0,0,0],"id":19,"left_children":[1,3,-1,-1,5,-1,-1],"loss_changes":[1.1639385E0,3.6099095E0,0E0,0E0,6.741427E-1,0E0,0E0],"parents":[2147483647,0,0,1,1,4,4],"right_children":[2,4,-1,-1,6,-1,-1],"split_conditions":[-6.407142E-2,-4.5780638E-1,-1.4561772E-1,-1.4496316E-1,1.4614739E-1,1.5351559E-1,-3.7019122E-2],"split_indices":[3,3,0,0,0,0,0],"split_type":[0,0,0,0,0,0,0],"sum_hessian":[2.7208696E1,1.7262753E1,9.945944E0,8.871291E0,8.391461E0,6.6872334E0,1.7042282E0],"tree_param":{"num_deleted":"0","num_feature":"10","num_nodes":"7","size_leaf_vector":"1"}},{"base_weights":[1.5155074E-1,-3.4678772E-1,5.2330256E-1,-4.1540298E-1,7.303524E-2,2.1509241E-2,1.6297853E-1,2.777877E-2,-1.5099831E-1],"categories":[],"categories_nodes":[],"categories_segments":[],"categories_sizes":[],"default_left":[0,0,0,0,0,0,0,0,0],"id":20,"left_children":[1,3,5,7,-1,-1,-1,-1,-1],"loss_changes":[6.659919E0,7.3059213E-1,1.451745E-1,6.8502855E-1,0E0,0E0,0E0,0E0,0E0],"parents":[2147483647,0,0,1,1,2,2,3,3],"right_children":[2,4,6,8,-1,-1,-1,-1,-1],"split_conditions":[-2.215654E-1,1.0568743E0,-6.407142E-2,-7.437623E-1,7.303524E-2,2.1509241E-2,1.6297853E-1,2.777877E-2,-1.5099831E-1],"split_indices":[3,9,3,1,0,0,0,0,0],"split_type":[0,0,0,0,0,0,0,0,0],"sum_hessian":[3.3969803E1,1.4542514E1,1.9427288E1,1.329337E1,1.2491434E0,1.016638E0,1.841065E1,1.9535123E0,1.1339858E1],"tree_param":{"num_deleted":"0","num_feature":"10","num_nodes":"9","size_leaf_vector":"1"}},{"base_weights":[3.282191E-2,4.4992283E-1,-1.4531286E-1,1.5493336E-1,-1.1549188E-2],"categories":[],"categories_nodes":[],"categories_segments":[],"categories_sizes":[],"default_left":[0,0,0,0,0],"id":21,"left_children":[1,3,-1,-1,-1],"loss_changes":[5.7609463E0,4.9886823E-1,0E0,0E0,0E0],"parents":[2147483647,0,0,1,1],"right_children":[2,4,-1,-1,-1],"split_conditions":[-4.5780638E-1,6.733507E-3,-1.4531286E-1,1.5493336E-1,-1.1549188E-2],"split_indices":[3,8,0,0,0],"split_type":[0,0,0,0,0],"sum_hessian":[2.469496E1,1.3742347E1,1.0952614E1,1.2044533E1,1.697814E0],"tree_param":{"num_deleted":"0","num_feature":"10","num_nodes":"5","size_leaf_vector":"1"}},{"base_weights":[-2.176654E-1,-6.093119E-2,-1.3952067E-1,-1.3883662E-1,3.4171596E-1,1.4416488E-1,-3.656731E-2],"categories":[],"categories_nodes":[],"categories_segments":[],"categories_sizes":[],"default_left":[0,0,0,0,0,0,0],"id":22,"left_children":[1,3,-1,-1,5,-1,-1],"loss_changes":[8.551861E-1,2.6012924E0,0E0,0E0,5.810466E-1,0E0,0E0],"parents":[2147483647,0,0,1,1,4,4],"right_children":[2,4,-1,-1,6,-1,-1],"split_conditions":[-6.407142E-2,-4.5780638E-1,-1.3952067E-1,-1.3883662E-1,1.4614739E-1,1.4416488E-1,-3.656731E-2],"split_indices":[3,3,0,0,0,0,0],"split_type":[0,0,0,0,0,0,0],"sum_hessian":[2.1784967E1,1.4099183E1,7.6857843E0,6.981755E0,7.117428E0,5.44908E0,1.6683482E0],"tree_param":{"num_deleted":"0","num_feature":"10","num_nodes":"7","size_leaf_vector":"1"}},{"base_weights":[1.4487197E-1,-3.1040713E-1,4.9633285E-1,8.131176E-2,-4.3215007E-1,4.5829553E-2,1.5767406E-1,-8.496055E-2,9.906937E-2,-1.4506349E-1,3.925921E-3],"categories":[],"categories_nodes":[],"categories_segments":[],"categories_sizes":[],"default_left":[0,0,0,0,0,0,0,0,0,0,0],"id":23,"left_children":[1,3,5,7,9,-1,-1,-1,-1,-1,-1],"loss_changes":[4.700393E0,6.547719E-1,8.4695816E-2,4.494153E-1,2.3677742E-1,0E0,0E0,0E0,0E0,0E0,0E0],"parents":[2147483647,0,0,1,1,2,2,3,3,4,4],"right_children":[2,4,6,8,10,-1,-1,-1,-1,-1,-1],"split_conditions":[-2.215654E-1,-6.436434E-1,-5.171369E-2,-5.171369E-2,5.3275406E-1,4.5829553E-2,1.5767406E-1,-8.496055E-2,9.906937E-2,-1.4506349E-1,3.925921E-3],"split_indices":[3,1,0,0,1,0,0,0,0,0,0],"split_type":[0,0,0,0,0,0,0,0,0,0,0],"sum_hessian":[2.741228E1,1.1993204E1,1.5419075E1,2.9223576E0,9.070847E0,1.697836E0,1.3721239E1,1.129951E0,1.7924066E0,8.0549965E0,1.0158509E0],"tree_param":{"num_deleted":"0","num_feature":"10","num_nodes":"11","size_leaf_vector":"1"}},{"base_weights":[3.0195832E-2,4.1901815E-1,-1.4042102E-1,1.4882275E-1,-1.833133E-2],"categories":[],"categories_nodes":[],"categories_segments":[],"categories_sizes":[],"default_left":[0,0,0,0,0],"id":24,"left_children":[1,3,-1,-1,-1],"loss_changes":[4.218797E0,4.8131728E-1,0E0,0E0,0E0],"parents":[2147483647,0,0,1,1],"right_children":[2,4,-1,-1,-1],"split_conditions":[-4.5780638E-1,8.593116E-1,-1.4042102E-1,1.4882275E-1,-1.833133E-2],"split_indices":[3,4,0,0,0],"split_type":[0,0,0,0,0],"sum_hessian":[1.9763557E1,1.1190267E1,8.57329E0,9.614028E0,1.5762391E0],"tree_param":{"num_deleted":"0","num_feature":"10","num_nodes":"5","size_leaf_vector":"1"}},{"base_weights":[-2.0680156E-1,-5.7568736E-2,-1.3350889E-1,-1.3269034E-1,3.057076E-1,1.354069E-1,-3.407135E-2],"categories":[],"categories_nodes":[],"categories_segments":[],"categories_sizes":[],"default_left":[0,0,0,0,0,0,0],"id":25,"left_children":[1,3,-1,-1,5,-1,-1],"loss_changes":[6.323225E-1,1.8860906E0,0E0,0E0,4.8084885E-1,0E0,0E0],"parents":[2147483647,0,0,1,1,4,4],"right_children":[2,4,-1,-1,6,-1,-1],"split_conditions":[-6.407142E-2,-4.5780638E-1,-1.3350889E-1,-1.3269034E-1,1.4614739E-1,1.354069E-1,-3.407135E-2],"split_indices":[3,3,0,0,0,0,0],"split_type":[0,0,0,0,0,0,0],"sum_hessian":[1.7506767E1,1.1527358E1,5.97941E0,5.4927053E0,6.034652E0,4.422026E0,1.6126261E0],"tree_param":{"num_deleted":"0","num_feature":"10","num_nodes":"7","size_leaf_vector":"1"}},{"base_weights":[1.3764572E-1,-2.776639E-1,4.711719E-1,9.3618415E-2,-4.0689403E-1,3.9200447E-2,1.509515E-1,-3.5771314E-2,9.5599905E-2,-1.394795E-1,1.9619584E-3],"categories":[],"categories_nodes":[],"categories_segments":[],"categories_sizes":[],"default_left":[0,0,0,0,0,0,0,0,0,0,0],"id":26,"left_children":[1,3,5,7,9,-1,-1,-1,-1,-1,-1],"loss_changes":[3.3513362E0,5.651427E-1,7.8792095E-2,2.1280055E-1,2.0304751E-1,0E0,0E0,0E0,0E0,0E0,0E0],"parents":[2147483647,0,0,1,1,2,2,3,3,4,4],"right_children":[2,4,6,8,10,-1,-1,-1,-1,-1,-1],"split_conditions":[-2.215654E-1,-6.436434E-1,-5.171369E-2,-2.7852017E-1,5.418696E-1,3.9200447E-2,1.509515E-1,-3.5771314E-2,9.5599905E-2,-1.394795E-1,1.9619584E-3],"split_indices":[3,1,0,5,0,0,0,0,0,0,0],"split_type":[0,0,0,0,0,0,0,0,0,0,0],"sum_hessian":[2.2249983E1,9.984584E0,1.2265399E1,2.6491265E0,7.335457E0,1.4903433E0,1.0775055E1,1.6030695E0,1.0460571E0,6.3232427E0,1.0122144E0],"tree_param":{"num_deleted":"0","num_feature":"10","num_nodes":"11","size_leaf_vector":"1"}},{"base_weights":[2.731037E-2,3.9006126E-1,-1.354757E-1,1.423268E-1,-2.2757553E-2],"categories":[],"categories_nodes":[],"categories_segments":[],"categories_sizes":[],"default_left":[0,0,0,0,0],"id":27,"left_children":[1,3,-1,-1,-1],"loss_changes":[3.1128495E0,4.3515217E-1,0E0,0E0,0E0],"parents":[2147483647,0,0,1,1],"right_children":[2,4,-1,-1,-1],"split_conditions":[-4.5780638E-1,6.733507E-3,-1.354757E-1,1.423268E-1,-2.2757553E-2],"split_indices":[3,8,0,0,0],"split_type":[0,0,0,0,0],"sum_hessian":[1.5904814E1,9.155367E0,6.749447E0,7.736343E0,1.4190243E0],"tree_param":{"num_deleted":"0","num_feature":"10","num_nodes":"5","size_leaf_vector":"1"}},{"base_weights":[-1.9659871E-1,-5.509507E-2,-1.2725185E-1,-1.2619765E-1,2.6916677E-1,1.2738912E-1,-3.3981614E-2],"categories":[],"categories_nodes":[],"categories_segments":[],"categories_sizes":[],"default_left":[0,0,0,0,0,0,0],"id":28,"left_children":[1,3,-1,-1,5,-1,-1],"loss_changes":[4.654793E-1,1.3590143E0,0E0,0E0,4.1548553E-1,0E0,0E0],"parents":[2147483647,0,0,1,1,4,4],"right_children":[2,4,-1,-1,6,-1,-1],"split_conditions":[-6.407142E-2,-4.5780638E-1,-1.2725185E-1,-1.2619765E-1,1.4614739E-1,1.2738912E-1,-3.3981614E-2],"split_indices":[3,3,0,0,0,0,0],"split_type":[0,0,0,0,0,0,0],"sum_hessian":[1.4180438E1,9.509567E0,4.670871E0,4.3303595E0,5.179208E0,3.603885E0,1.5753226E0],"tree_param":{"num_deleted":"0","num_feature":"10","num_nodes":"7","size_leaf_vector":"1"}},{"base_weights":[1.3136265E-1,-2.1501206E-1,1.4307782E-1,-3.3298856E-1,1.5550573E-1,3.3119223E-3,-1.3442028E-1,-9.184273E-3,8.218067E-2],"categories":[],"categories_nodes":[],"categories_segments":[],"categories_sizes":[],"default_left":[0,0,0,0,0,0,0,0,0],"id":29,"left_children":[1,3,-1,5,7,-1,-1,-1,-1],"loss_changes":[2.4012382E0,5.0116E-1,0E0,3.2625747E-1,7.813816E-2,0E0,0E0,0E0,0E0],"parents":[2147483647,0,0,1,1,3,3,4,4],"right_children":[2,4,-1,6,8,-1,-1,-1,-1],"split_conditions":[-6.407142E-2,6.2423963E-2,1.4307782E-1,-6.436434E-1,3.8075417E-2,3.3119223E-3,-1.3442028E-1,-9.184273E-3,8.218067E-2],"split_indices":[3,2,0,1,5,0,0,0,0],"split_type":[0,0,0,0,0,0,0,0,0],"sum_hessian":[1.8204685E1,9.280345E0,8.924341E0,7.11587E0,2.1644742E0,2.0102632E0,5.105607E0,1.1300416E0,1.0344328E0],"tree_param":{"num_deleted":"0","num_feature":"10","num_nodes":"9","size_leaf_vector":"1"}},{"base_weights":[2.540533E-2,3.6083776E-1,-1.3017772E-1,1.3715121E-1,-2.884418E-2],"categories":[],"categories_nodes":[],"categories_segments":[],"categories_sizes":[],"default_left":[0,0,0,0,0],"id":30,"left_children":[1,3,-1,-1,-1],"loss_changes":[2.2984738E0,4.2168903E-1,0E0,0E0,0E0],"parents":[2147483647,0,0,1,1],"right_children":[2,4,-1,-1,-1],"split_conditions":[-4.5780638E-1,1.2253089E0,-1.3017772E-1,1.3715121E-1,-2.884418E-2],"split_indices":[3,5,0,0,0],"split_type":[0,0,0,0,0],"sum_hessian":[1.2901695E1,7.580422E0,5.3212733E0,6.2603316E0,1.3200905E0],"tree_param":{"num_deleted":"0","num_feature":"10","num_nodes":"5","size_leaf_vector":"1"}},{"base_weights":[-1.8849558E-1,-5.5755056E-2,-1.253567E-1,-1.1683557E-1,1.8239287E-1,3.61753E-1,-8.4746696E-2,1.5990283E-2,1.2895724E-1],"categories":[],"categories_nodes":[],"categories_segments":[],"categories_sizes":[],"default_left":[0,0,0,0,0,0,0,0,0],"id":31,"left_children":[1,3,-1,-1,5,7,-1,-1,-1],"loss_changes":[3.589154E-1,7.946725E-1,0E0,0E0,6.0204077E-1,7.717073E-2,0E0,0E0,0E0],"parents":[2147483647,0,0,1,1,4,4,5,5],"right_children":[2,4,-1,-1,6,8,-1,-1,-1],"split_conditions":[5.418696E-1,-4.5780638E-1,-1.253567E-1,-1.1683557E-1,-6.407142E-2,-5.159669E-1,-8.4746696E-2,1.5990283E-2,1.2895724E-1],"split_indices":[0,3,0,0,3,5,0,0,0],"split_type":[0,0,0,0,0,0,0,0,0],"sum_hessian":[1.1554053E1,8.105907E0,3.448146E0,3.1111608E0,4.9947467E0,3.7642622E0,1.2304842E0,1.0032183E0,2.761044E0],"tree_param":{"num_deleted":"0","num_feature":"10","num_nodes":"9","size_leaf_vector":"1"}},{"base_weights":[1.2602562E-1,-2.10314E-1,4.2957866E-1,1.1648683E-1,-3.5544172E-1,2.7689124E-2,1.3912958E-1,7.9828635E-2,-2.0341326E-2,-1.2749973E-1,-2.4134815E-3],"categories":[],"categories_nodes":[],"categories_segments":[],"categories_sizes":[],"default_left":[0,0,0,0,0,0,0,0,0,0,0],"id":32,"left_children":[1,3,5,7,9,-1,-1,-1,-1,-1,-1],"loss_changes":[1.7212999E0,4.3265367E-1,5.7801843E-2,1.0875331E-1,1.4058256E-1,0E0,0E0,0E0,0E0,0E0,0E0],"parents":[2147483647,0,0,1,1,2,2,3,3,4,4],"right_children":[2,4,6,8,10,-1,-1,-1,-1,-1,-1],"split_conditions":[-2.215654E-1,-6.436434E-1,-5.171369E-2,-1.0877823E0,3.5754594E-1,2.7689124E-2,1.3912958E-1,7.9828635E-2,-2.0341326E-2,-1.2749973E-1,-2.4134815E-3],"split_indices":[3,1,0,3,1,0,0,0,0,0,0],"split_type":[0,0,0,0,0,0,0,0,0,0,0],"sum_hessian":[1.497456E1,7.24936E0,7.7251997E0,2.290016E0,4.9593444E0,1.0514544E0,6.673745E0,1.0189456E0,1.2710705E0,3.9458966E0,1.0134475E0],"tree_param":{"num_deleted":"0","num_feature":"10","num_nodes":"11","size_leaf_vector":"1"}},{"base_weights":[2.3313763E-2,3.3475736E-1,-1.2454964E-1,1.3164598E-1,-3.181789E-2],"categories":[],"categories_nodes":[],"categories_segments":[],"categories_sizes":[],"default_left":[0,0,0,0,0],"id":33,"left_children":[1,3,-1,-1,-1],"loss_changes":[1.7190299E0,3.8226938E-1,0E0,0E0,0E0],"parents":[2147483647,0,0,1,1],"right_children":[2,4,-1,-1,-1],"split_conditions":[-4.5780638E-1,8.593116E-1,-1.2454964E-1,1.3164598E-1,-3.181789E-2],"split_indices":[3,4,0,0,0],"split_type":[0,0,0,0,0],"sum_hessian":[1.0570242E1,6.318721E0,4.2515206E0,5.11562E0,1.2031009E0],"tree_param":{"num_deleted":"0","num_feature":"10","num_nodes":"5","size_leaf_vector":"1"}},{"base_weights":[-1.801465E-1,-5.3330775E-2,-1.1809374E-1,-1.0961149E-1,1.62694E-1,3.2542616E-1,-7.770358E-2,1.8381217E-2,1.184955E-1],"categories":[],"categories_nodes":[],"categories_segments":[],"categories_sizes":[],"default_left":[0,0,0,0,0,0,0,0,0],"id":34,"left_children":[1,3,-1,-1,5,7,-1,-1,-1],"loss_changes":[2.6530048E-1,5.845862E-1,0E0,0E0,4.4768524E-1,5.414912E-2,0E0,0E0,0E0],"parents":[2147483647,0,0,1,1,4,4,5,5],"right_children":[2,4,-1,-1,6,8,-1,-1,-1],"split_conditions":[5.418696E-1,-4.5780638E-1,-1.1809374E-1,-1.0961149E-1,-6.407142E-2,-5.4352444E-1,-7.770358E-2,1.8381217E-2,1.184955E-1],"split_indices":[0,3,0,0,3,1,0,0,0],"split_type":[0,0,0,0,0,0,0,0,0],"sum_hessian":[9.57408E0,6.790442E0,2.7836382E0,2.4950628E0,4.295379E0,3.2641041E0,1.031275E0,1.0724051E0,2.191699E0],"tree_param":{"num_deleted":"0","num_feature":"10","num_nodes":"9","size_leaf_vector":"1"}},{"base_weights":[1.211433E-1,-1.5600298E-1,1.3171068E-1,-1.1612051E-1,5.9665002E-2,8.8448256E-2,-1.24925345E-1,-9.720098E-2,5.500608E-2],"categories":[],"categories_nodes":[],"categories_segments":[],"categories_sizes":[],"default_left":[0,0,0,0,0,0,0,0,0],"id":35,"left_children":[1,3,-1,-1,5,-1,7,-1,-1],"loss_changes":[1.2576599E0,4.1920653E-1,0E0,0E0,2.5291088E-1,0E0,2.7366385E-1,0E0,0E0],"parents":[2147483647,0,0,1,1,4,4,6,6],"right_children":[2,4,-1,-1,6,-1,8,-1,-1],"split_conditions":[-6.407142E-2,-5.171369E-2,1.3171068E-1,-1.1612051E-1,-6.436434E-1,8.8448256E-2,3.2159414E-2,-9.720098E-2,5.500608E-2],"split_indices":[3,0,0,0,1,0,1,0,0],"split_type":[0,0,0,0,0,0,0,0,0],"sum_hessian":[1.2497538E1,6.948726E0,5.5488114E0,2.9709387E0,3.9777875E0,1.4866462E0,2.4911413E0,1.4826686E0,1.0084727E0],"tree_param":{"num_deleted":"0","num_feature":"10","num_nodes":"9","size_leaf_vector":"1"}},{"base_weights":[2.2368489E-2,3.104513E-1,-1.1839601E-1,1.2606218E-1,-3.4686565E-2],"categories":[],"categories_nodes":[],"categories_segments":[],"categories_sizes":[],"default_left":[0,0,0,0,0],"id":36,"left_children":[1,3,-1,-1,-1],"loss_changes":[1.2880323E0,3.430825E-1,0E0,0E0,0E0],"parents":[2147483647,0,0,1,1],"right_children":[2,4,-1,-1,-1],"split_conditions":[-4.5780638E-1,6.733507E-3,-1.1839601E-1,1.2606218E-1,-3.4686565E-2],"split_indices":[3,8,0,0,0],"split_type":[0,0,0,0,0],"sum_hessian":[8.701536E0,5.297513E0,3.404023E0,4.2233505E0,1.0741627E0],"tree_param":{"num_deleted":"0","num_feature":"10","num_nodes":"5","size_leaf_vector":"1"}},{"base_weights":[-1.7281376E-1,-5.0465982E-2,-1.1077238E-1,-1.0217371E-1,1.4850429E-1,2.726659E-1,-3.8479786E-2,1.0290047E-1,1.4980073E-2],"categories":[],"categories_nodes":[],"categories_segments":[],"categories_sizes":[],"default_left":[0,0,0,0,0,0,0,0,0],"id":37,"left_children":[1,3,-1,-1,5,7,-1,-1,-1],"loss_changes":[1.9615197E-1,4.3533263E-1,0E0,0E0,1.9477266E-1,3.8173735E-2,0E0,0E0,0E0],"parents":[2147483647,0,0,1,1,4,4,5,5],"right_children":[2,4,-1,-1,6,8,-1,-1,-1],"split_conditions":[5.418696E-1,-4.5780638E-1,-1.1077238E-1,-1.0217371E-1,4.667872E-1,-3.003124E-1,-3.8479786E-2,1.0290047E-1,1.4980073E-2],"split_indices":[0,3,0,0,9,3,0,0,0],"split_type":[0,0,0,0,0,0,0,0,0],"sum_hessian":[7.9373307E0,5.665444E0,2.271887E0,2.0152931E0,3.6501505E0,2.5299995E0,1.120151E0,1.5124254E0,1.0175741E0],"tree_param":{"num_deleted":"0","num_feature":"10","num_nodes":"9","size_leaf_vector":"1"}},{"base_weights":[1.1617638E-1,-1.3383149E-1,1.2574354E-1,-1.09265395E-1,6.732275E-2,8.286455E-2,-1.1256996E-1,-8.7233976E-2,4.0855203E-2],"categories":[],"categories_nodes":[],"categories_segments":[],"categories_sizes":[],"default_left":[0,0,0,0,0,0,0,0,0],"id":38,"left_children":[1,3,-1,-1,5,-1,7,-1,-1],"loss_changes":[9.215876E-1,3.4977508E-1,0E0,0E0,2.0361145E-1,0E0,1.8044297E-1,0E0,0E0],"parents":[2147483647,0,0,1,1,4,4,6,6],"right_children":[2,4,-1,-1,6,-1,8,-1,-1],"split_conditions":[-6.407142E-2,-5.171369E-2,1.2574354E-1,-1.09265395E-1,-6.436434E-1,8.286455E-2,-4.2929783E-2,-8.7233976E-2,4.0855203E-2],"split_indices":[3,0,0,0,1,0,1,0,0],"split_type":[0,0,0,0,0,0,0,0,0],"sum_hessian":[1.0426467E1,6.018393E0,4.4080734E0,2.4274917E0,3.5909016E0,1.4137746E0,2.177127E0,1.1699888E0,1.0071381E0],"tree_param":{"num_deleted":"0","num_feature":"10","num_nodes":"9","size_leaf_vector":"1"}},{"base_weights":[2.1085674E-2,2.8809756E-1,-1.121408E-1,1.2061153E-1,-3.3088345E-2],"categories":[],"categories_nodes":[],"categories_segments":[],"categories_sizes":[],"default_left":[0,0,0,0,0],"id":39,"left_children":[1,3,-1,-1,-1],"loss_changes":[9.784768E-1,2.9363278E-1,0E0,0E0,0E0],"parents":[2147483647,0,0,1,1],"right_children":[2,4,-1,-1,-1],"split_conditions":[-4.5780638E-1,8.593116E-1,-1.121408E-1,1.2061153E-1,-3.3088345E-2],"split_indices":[3,4,0,0,0],"split_type":[0,0,0,0,0],"sum_hessian":[7.2585955E0,4.4918027E0,2.7667928E0,3.4857259E0,1.0060767E0],"tree_param":{"num_deleted":"0","num_feature":"10","num_nodes":"5","size_leaf_vector":"1"}},{"base_weights":[-1.6304702E-1,-1.22894645E-2,-2.954208E-1,-9.4584174E-2,7.66446E-2,-1.2810908E-2,-1.0916078E-1],"categories":[],"categories_nodes":[],"categories_segments":[],"categories_sizes":[],"default_left":[0,0,0,0,0,0,0],"id":40,"left_children":[1,3,5,-1,-1,-1,-1],"loss_changes":[1.507676E-1,4.5867616E-1,5.4971755E-2,0E0,0E0,0E0,0E0],"parents":[2147483647,0,0,1,1,2,2],"right_children":[2,4,6,-1,-1,-1,-1],"split_conditions":[1.4614739E-1,-4.5780638E-1,-6.22085E-1,-9.4584174E-2,7.66446E-2,-1.2810908E-2,-1.0916078E-1],"split_indices":[0,3,6,0,0,0,0],"split_type":[0,0,0,0,0,0,0],"sum_hessian":[6.736794E0,3.660627E0,3.0761673E0,1.6341336E0,2.026493E0,1.0016942E0,2.0744731E0],"tree_param":{"num_deleted":"0","num_feature":"10","num_nodes":"7","size_leaf_vector":"1"}},{"base_weights":[1.1025568E-1,-1.7704645E-1,3.3587933E-1,-1.01736076E-1,4.9383864E-2,3.486332E-2,1.1736454E-1],"categories":[],"categories_nodes":[],"categories_segments":[],"categories_sizes":[],"default_left":[0,0,0,0,0,0,0],"id":41,"left_children":[1,3,5,-1,-1,-1,-1],"loss_changes":[6.98731E-1,3.3229542E-1,2.5877416E-2,0E0,0E0,0E0,0E0],"parents":[2147483647,0,0,1,1,2,2],"right_children":[2,4,6,-1,-1,-1,-1],"split_conditions":[-2.0197816E-1,7.0386535E-1,-1.821919E-1,-1.01736076E-1,4.9383864E-2,3.486332E-2,1.1736454E-1],"split_indices":[9,4,3,0,0,0,0],"split_type":[0,0,0,0,0,0,0],"sum_hessian":[8.861825E0,3.9928086E0,4.8690166E0,2.7131817E0,1.279627E0,1.6035316E0,3.265485E0],"tree_param":{"num_deleted":"0","num_feature":"10","num_nodes":"7","size_leaf_vector":"1"}},{"base_weights":[1.5134513E-2,2.6294854E-1,-1.0602016E-1,-2.6638865E-2,1.1395756E-1],"categories":[],"categories_nodes":[],"categories_segments":[],"categories_sizes":[],"default_left":[0,0,0,0,0],"id":42,"left_children":[1,3,-1,-1,-1],"loss_changes":[7.428918E-1,2.3230022E-1,0E0,0E0,0E0],"parents":[2147483647,0,0,1,1],"right_children":[2,4,-1,-1,-1],"split_conditions":[-4.5780638E-1,-7.437623E-1,-1.0602016E-1,-2.6638865E-2,1.1395756E-1],"split_indices":[3,1,0,0,0],"split_type":[0,0,0,0,0],"sum_hessian":[6.116815E0,3.8287513E0,2.288064E0,1.0151033E0,2.813648E0],"tree_param":{"num_deleted":"0","num_feature":"10","num_nodes":"5","size_leaf_vector":"1"}},{"base_weights":[-1.5016139E-1,-3.442948E-2,-9.7678415E-2,-8.786565E-2,1.3229576E-1,6.884265E-2,-1.9254103E-2],"categories":[],"categories_nodes":[],"categories_segments":[],"categories_sizes":[],"default_left":[0,0,0,0,0,0,0],"id":43,"left_children":[1,3,-1,-1,5,-1,-1],"loss_changes":[1.2793402E-1,2.6486853E-1,0E0,0E0,8.8785075E-2,0E0,0E0],"parents":[2147483647,0,0,1,1,4,4],"right_children":[2,4,-1,-1,6,-1,-1],"split_conditions":[5.418696E-1,-4.5780638E-1,-9.7678415E-2,-8.786565E-2,1.4614739E-1,6.884265E-2,-1.9254103E-2],"split_indices":[0,3,0,0,0,0,0],"split_type":[0,0,0,0,0,0,0],"sum_hessian":[5.8532977E0,4.2475066E0,1.6057912E0,1.3688428E0,2.8786638E0,1.813651E0,1.0650128E0],"tree_param":{"num_deleted":"0","num_feature":"10","num_nodes":"7","size_leaf_vector":"1"}},{"base_weights":[1.0582803E-1,-1.0415927E-1,1.144882E-1,-9.7933345E-2,7.704713E-2,7.599174E-2,-2.833804E-2],"categories":[],"categories_nodes":[],"categories_segments":[],"categories_sizes":[],"default_left":[0,0,0,0,0,0,0],"id":44,"left_children":[1,3,-1,-1,5,-1,-1],"loss_changes":[5.4398036E-1,2.5589612E-1,0E0,0E0,1.4378631E-1,0E0,0E0],"parents":[2147483647,0,0,1,1,4,4],"right_children":[2,4,-1,-1,6,-1,-1],"split_conditions":[-6.407142E-2,-5.171369E-2,1.144882E-1,-9.7933345E-2,-6.436434E-1,7.599174E-2,-2.833804E-2],"split_indices":[3,0,0,0,1,0,0],"split_type":[0,0,0,0,0,0,0],"sum_hessian":[7.706483E0,4.728584E0,2.977899E0,1.7636343E0,2.9649496E0,1.2270087E0,1.7379408E0],"tree_param":{"num_deleted":"0","num_feature":"10","num_nodes":"7","size_leaf_vector":"1"}},{"base_weights":[1.4107791E-2,2.4359216E-1,-9.976756E-2,-1.9105984E-2,1.07239254E-1],"categories":[],"categories_nodes":[],"categories_segments":[],"categories_sizes":[],"default_left":[0,0,0,0,0],"id":45,"left_children":[1,3,-1,-1,-1],"loss_changes":[5.767676E-1,1.7416158E-1,0E0,0E0,0E0],"parents":[2147483647,0,0,1,1],"right_children":[2,4,-1,-1,-1],"split_conditions":[-4.5780638E-1,-7.187326E-1,-9.976756E-2,-1.9105984E-2,1.07239254E-1],"split_indices":[3,1,0,0,0],"split_type":[0,0,0,0,0],"sum_hessian":[5.2316904E0,3.3267772E0,1.9049132E0,1.0186666E0,2.3081105E0],"tree_param":{"num_deleted":"0","num_feature":"10","num_nodes":"5","size_leaf_vector":"1"}},{"base_weights":[-1.417614E-1,-2.9471533E-2,-9.1796845E-2,-8.0962345E-2,1.22315355E-1,5.94018E-2,-7.7915075E-3],"categories":[],"categories_nodes":[],"categories_segments":[],"categories_sizes":[],"default_left":[0,0,0,0,0,0,0],"id":46,"left_children":[1,3,-1,-1,5,-1,-1],"loss_changes":[1.0362813E-1,2.0577021E-1,0E0,0E0,4.5439076E-2,0E0,0E0],"parents":[2147483647,0,0,1,1,4,4],"right_children":[2,4,-1,-1,6,-1,-1],"split_conditions":[5.418696E-1,-4.5780638E-1,-9.1796845E-2,-8.0962345E-2,-3.003124E-1,5.94018E-2,-7.7915075E-3],"split_indices":[0,3,0,0,3,0,0],"split_type":[0,0,0,0,0,0,0],"sum_hessian":[5.1084123E0,3.7344565E0,1.3739555E0,1.1442263E0,2.5902302E0,1.4929106E0,1.0973197E0],"tree_param":{"num_deleted":"0","num_feature":"10","num_nodes":"7","size_leaf_vector":"1"}},{"base_weights":[1.0030339E-1,-1.13005474E-1,1.0057614E-1,3.900069E-2,-7.93595E-2],"categories":[],"categories_nodes":[],"categories_segments":[],"categories_sizes":[],"default_left":[0,0,0,0,0],"id":47,"left_children":[1,3,-1,-1,-1],"loss_changes":[4.2662737E-1,2.1163216E-1,0E0,0E0,0E0],"parents":[2147483647,0,0,1,1],"right_children":[2,4,-1,-1,-1],"split_conditions":[-2.215654E-1,-6.436434E-1,1.0057614E-1,3.900069E-2,-7.93595E-2],"split_indices":[3,1,0,0,0],"split_type":[0,0,0,0,0],"sum_hessian":[6.756686E0,3.8134873E0,2.943199E0,1.5191776E0,2.2943099E0],"tree_param":{"num_deleted":"0","num_feature":"10","num_nodes":"5","size_leaf_vector":"1"}},{"base_weights":[1.1664834E-2,2.2364633E-1,-9.384232E-2,1.0138125E-1,-1.6622711E-2],"categories":[],"categories_nodes":[],"categories_segments":[],"categories_sizes":[],"default_left":[0,0,0,0,0],"id":48,"left_children":[1,3,-1,-1,-1],"loss_changes":[4.5272306E-1,1.4467257E-1,0E0,0E0,0E0],"parents":[2147483647,0,0,1,1],"right_children":[2,4,-1,-1,-1],"split_conditions":[-4.5780638E-1,-4.1073482E-2,-9.384232E-2,1.0138125E-1,-1.6622711E-2],"split_indices":[3,5,0,0,0],"split_type":[0,0,0,0,0],"sum_hessian":[4.564883E0,2.9490047E0,1.6158785E0,1.9424437E0,1.0065609E0],"tree_param":{"num_deleted":"0","num_feature":"10","num_nodes":"5","size_leaf_vector":"1"}},{"base_weights":[-1.3073197E-1,-2.3182722E-2,-8.593534E-2,-1.2184324E-1,3.5171993E-2,-5.2069154E-2,-3.070763E-3],"categories":[],"categories_nodes":[],"categories_segments":[],"categories_sizes":[],"default_left":[0,0,0,0,0,0,0],"id":49,"left_children":[1,3,-1,5,-1,-1,-1],"loss_changes":[8.656318E-2,7.496364E-2,0E0,1.5903153E-2,0E0,0E0,0E0],"parents":[2147483647,0,0,1,1,3,3],"right_children":[2,4,-1,6,-1,-1,-1],"split_conditions":[5.418696E-1,-4.1073482E-2,-8.593534E-2,-3.1825686E-1,3.5171993E-2,-5.2069154E-2,-3.070763E-3],"split_indices":[0,5,0,1,0,0,0],"split_type":[0,0,0,0,0,0,0],"sum_hessian":[4.5652494E0,3.3798156E0,1.1854337E0,2.062806E0,1.3170097E0,1.0302453E0,1.0325606E0],"tree_param":{"num_deleted":"0","num_feature":"10","num_nodes":"7","size_leaf_vector":"1"}},{"base_weights":[9.383032E-2,-8.033023E-2,1.0294775E-1,-8.789047E-2,8.02071E-2,-3.0840708E-2,6.084432E-2],"categories":[],"categories_nodes":[],"categories_segments":[],"categories_sizes":[],"default_left":[0,0,0,0,0,0,0],"id":50,"left_children":[1,3,-1,-1,5,-1,-1],"loss_changes":[3.342273E-1,1.9309232E-1,0E0,0E0,1.0198559E-1,0E0,0E0],"parents":[2147483647,0,0,1,1,4,4],"right_children":[2,4,-1,-1,6,-1,-1],"split_conditions":[-6.407142E-2,-5.171369E-2,1.0294775E-1,-8.789047E-2,1.6942075E-1,-3.0840708E-2,6.084432E-2],"split_indices":[3,0,0,0,7,0,0],"split_type":[0,0,0,0,0,0,0],"sum_hessian":[6.0621457E0,3.9681425E0,2.0940032E0,1.3521904E0,2.615952E0,1.1142706E0,1.5016814E0],"tree_param":{"num_deleted":"0","num_feature":"10","num_nodes":"7","size_leaf_vector":"1"}},{"base_weights":[1.5296871E-2,2.117793E-1,-8.820071E-2,9.601601E-2,-1.1691312E-2],"categories":[],"categories_nodes":[],"categories_segments":[],"categories_sizes":[],"default_left":[0,0,0,0,0],"id":51,"left_children":[1,3,-1,-1,-1],"loss_changes":[3.7040505E-1,1.12438485E-1,0E0,0E0,0E0],"parents":[2147483647,0,0,1,1],"right_children":[2,4,-1,-1,-1],"split_conditions":[-4.5780638E-1,-1.2022238E-1,-8.820071E-2,9.601601E-2,-1.1691312E-2],"split_indices":[3,5,0,0,0],"split_type":[0,0,0,0,0],"sum_hessian":[4.070462E0,2.6820087E0,1.3884537E0,1.6801407E0,1.001868E0],"tree_param":{"num_deleted":"0","num_feature":"10","num_nodes":"5","size_leaf_vector":"1"}},{"base_weights":[-1.2204667E-1,7.1811173E-3,-6.689371E-2,-5.5932347E-2,5.3980533E-2],"categories":[],"categories_nodes":[],"categories_segments":[],"categories_sizes":[],"default_left":[0,0,0,0,0],"id":52,"left_children":[1,3,-1,-1,-1],"loss_changes":[6.879958E-2,1.4152384E-1,0E0,0E0,0E0],"parents":[2147483647,0,0,1,1],"right_children":[2,4,-1,-1,-1],"split_conditions":[1.4614739E-1,-4.1843286E-1,-6.689371E-2,-5.5932347E-2,5.3980533E-2],"split_indices":[0,3,0,0,0],"split_type":[0,0,0,0,0],"sum_hessian":[4.1519566E0,2.2280924E0,1.9238645E0,1.0132334E0,1.214859E0],"tree_param":{"num_deleted":"0","num_feature":"10","num_nodes":"5","size_leaf_vector":"1"}},{"base_weights":[8.556358E-2,-7.438371E-2,9.710733E-2,-8.279309E-2,7.3603205E-2,6.461294E-2,-2.5426332E-2],"categories":[],"categories_nodes":[],"categories_segments":[],"categories_sizes":[],"default_left":[0,0,0,0,0,0,0],"id":53,"left_children":[1,3,-1,-1,5,-1,-1],"loss_changes":[2.6944652E-1,1.5953958E-1,0E0,0E0,9.639875E-2,0E0,0E0],"parents":[2147483647,0,0,1,1,4,4],"right_children":[2,4,-1,-1,6,-1,-1],"split_conditions":[-6.407142E-2,-5.171369E-2,9.710733E-2,-8.279309E-2,-6.436434E-1,6.461294E-2,-2.5426332E-2],"split_indices":[3,0,0,0,1,0,0],"split_type":[0,0,0,0,0,0,0],"sum_hessian":[5.4421906E0,3.666846E0,1.7753445E0,1.186152E0,2.480694E0,1.1189053E0,1.3617887E0],"tree_param":{"num_deleted":"0","num_feature":"10","num_nodes":"7","size_leaf_vector":"1"}},{"base_weights":[1.5142965E-2,1.9823217E-1,-8.284634E-2,-6.45503E-3,8.950725E-2],"categories":[],"categories_nodes":[],"categories_segments":[],"categories_sizes":[],"default_left":[0,0,0,0,0],"id":54,"left_children":[1,3,-1,-1,-1],"loss_changes":[3.015294E-1,8.174482E-2,0E0,0E0,0E0],"parents":[2147483647,0,0,1,1],"right_children":[2,4,-1,-1,-1],"split_conditions":[-4.5780638E-1,-5.935839E-1,-8.284634E-2,-6.45503E-3,8.950725E-2],"split_indices":[3,1,0,0,0],"split_type":[0,0,0,0,0],"sum_hessian":[3.6272438E0,2.4234917E0,1.2037522E0,1.0043365E0,1.4191551E0],"tree_param":{"num_deleted":"0","num_feature":"10","num_nodes":"5","size_leaf_vector":"1"}},{"base_weights":[-1.1258972E-1,-2.4106451E-3,-6.495671E-2,-3.8260993E-2,3.507855E-2],"categories":[],"categories_nodes":[],"categories_segments":[],"categories_sizes":[],"default_left":[0,0,0,0,0],"id":55,"left_children":[1,3,-1,-1,-1],"loss_changes":[5.4020472E-2,6.453757E-2,0E0,0E0,0E0],"parents":[2147483647,0,0,1,1],"right_children":[2,4,-1,-1,-1],"split_conditions":[1.6942075E-1,-6.319603E-1,-6.495671E-2,-3.8260993E-2,3.507855E-2],"split_indices":[7,7,0,0,0],"split_type":[0,0,0,0,0],"sum_hessian":[3.763032E0,2.3232973E0,1.4397348E0,1.1006184E0,1.2226788E0],"tree_param":{"num_deleted":"0","num_feature":"10","num_nodes":"5","size_leaf_vector":"1"}},{"base_weights":[7.871806E-2,-6.885826E-2,9.1486245E-2,-7.753906E-2,6.6495016E-2,6.0558416E-2,-2.493565E-2],"categories":[],"categories_nodes":[],"categories_segments":[],"categories_sizes":[],"default_left":[0,0,0,0,0,0,0],"id":56,"left_children":[1,3,-1,-1,5,-1,-1],"loss_changes":[2.187292E-1,1.3010903E-1,0E0,0E0,8.488249E-2,0E0,0E0],"parents":[2147483647,0,0,1,1,4,4],"right_children":[2,4,-1,-1,6,-1,-1],"split_conditions":[-6.407142E-2,-5.171369E-2,9.1486245E-2,-7.753906E-2,-6.436434E-1,6.0558416E-2,-2.493565E-2],"split_indices":[3,0,0,0,1,0,0],"split_type":[0,0,0,0,0,0,0],"sum_hessian":[4.922366E0,3.400087E0,1.5222791E0,1.0373714E0,2.3627157E0,1.057082E0,1.3056337E0],"tree_param":{"num_deleted":"0","num_feature":"10","num_nodes":"7","size_leaf_vector":"1"}},{"base_weights":[1.6366301E-2,1.8805394E-1,-7.8122355E-2,-2.127756E-3,8.4034E-2],"categories":[],"categories_nodes":[],"categories_segments":[],"categories_sizes":[],"default_left":[0,0,0,0,0],"id":57,"left_children":[1,3,-1,-1,-1],"loss_changes":[2.531021E-1,6.0047753E-2,0E0,0E0,0E0],"parents":[2147483647,0,0,1,1],"right_children":[2,4,-1,-1,-1],"split_conditions":[-4.5780638E-1,-1.0090353E0,-7.8122355E-2,-2.127756E-3,8.4034E-2],"split_indices":[3,3,0,0,0],"split_type":[0,0,0,0,0],"sum_hessian":[3.2958117E0,2.2318861E0,1.0639254E0,1.0112362E0,1.22065E0],"tree_param":{"num_deleted":"0","num_feature":"10","num_nodes":"5","size_leaf_vector":"1"}},{"base_weights":[-1.0316275E-1,1.4217597E-2,-1.6316546E-1,9.014054E-4,-7.650937E-2],"categories":[],"categories_nodes":[],"categories_segments":[],"categories_sizes":[],"default_left":[0,0,0,0,0],"id":58,"left_children":[1,-1,3,-1,-1],"loss_changes":[4.817064E-2,0E0,5.3062245E-2,0E0,0E0],"parents":[2147483647,0,0,2,2],"right_children":[2,-1,4,-1,-1],"split_conditions":[-6.22085E-1,1.4217597E-2,4.7216848E-2,9.014054E-4,-7.650937E-2],"split_indices":[6,0,0,0,0],"split_type":[0,0,0,0,0],"sum_hessian":[3.4763424E0,1.050548E0,2.4257946E0,1.2080046E0,1.21779E0],"tree_param":{"num_deleted":"0","num_feature":"10","num_nodes":"5","size_leaf_vector":"1"}},{"base_weights":[7.0970096E-2,-6.5182455E-2,8.607435E-2,-6.0324017E-2,2.840213E-2],"categories":[],"categories_nodes":[],"categories_segments":[],"categories_sizes":[],"default_left":[0,0,0,0,0],"id":59,"left_children":[1,3,-1,-1,-1],"loss_changes":[1.8088612E-1,1.1023511E-1,0E0,0E0,0E0],"parents":[2147483647,0,0,1,1],"right_children":[2,4,-1,-1,-1],"split_conditions":[-6.407142E-2,1.6942075E-1,8.607435E-2,-6.0324017E-2,2.840213E-2],"split_indices":[3,7,0,0,0],"split_type":[0,0,0,0,0],"sum_hessian":[4.516215E0,3.1980205E0,1.3181944E0,1.5891583E0,1.6088622E0],"tree_param":{"num_deleted":"0","num_feature":"10","num_nodes":"5","size_leaf_vector":"1"}},{"base_weights":[1.847515E-2,5.0175894E-2,-6.266217E-2],"categories":[],"categories_nodes":[],"categories_segments":[],"categories_sizes":[],"default_left":[0,0,0],"id":60,"left_children":[1,-1,-1],"loss_changes":[1.7191075E-1,0E0,0E0],"parents":[2147483647,0,0],"right_children":[2,-1,-1],"split_conditions":[-5.365534E-1,5.0175894E-2,-6.266217E-2],"split_indices":[3,0,0],"split_type":[0,0,0],"sum_hessian":[3.0496085E0,2.0031052E0,1.0465033E0],"tree_param":{"num_deleted":"0","num_feature":"10","num_nodes":"3","size_leaf_vector":"1"}},{"base_weights":[-9.6563086E-2,4.9576154E-3,-5.462386E-2],"categories":[],"categories_nodes":[],"categories_segments":[],"categories_sizes":[],"default_left":[0,0,0],"id":61,"left_children":[1,-1,-1],"loss_changes":[4.409321E-2,0E0,0E0],"parents":[2147483647,0,0],"right_children":[2,-1,-1],"split_conditions":[1.4614739E-1,4.9576154E-3,-5.462386E-2],"split_indices":[0,0,0],"split_type":[0,0,0],"sum_hessian":[3.2482271E0,1.7460185E0,1.5022085E0],"tree_param":{"num_deleted":"0","num_feature":"10","num_nodes":"3","size_leaf_vector":"1"}},{"base_weights":[6.453564E-2,-1.0414539E-1,2.0987742E-1,-7.124351E-2,2.2947155E-2,1.3700451E-2,8.167037E-2],"categories":[],"categories_nodes":[],"categories_segments":[],"categories_sizes":[],"default_left":[0,0,0,0,0,0,0],"id":62,"left_children":[1,3,5,-1,-1,-1,-1],"loss_changes":[1.4927459E-1,9.2196874E-2,1.9549906E-2,0E0,0E0,0E0,0E0],"parents":[2147483647,0,0,1,1,2,2],"right_children":[2,4,6,-1,-1,-1,-1],"split_conditions":[-2.0197816E-1,8.2080334E-2,5.418696E-1,-7.124351E-2,2.2947155E-2,1.3700451E-2,8.167037E-2],"split_indices":[9,4,0,0,0,0,0],"split_type":[0,0,0,0,0,0,0],"sum_hessian":[4.1972075E0,2.0738175E0,2.12339E0,1.0120859E0,1.0617317E0,1.061207E0,1.0621829E0],"tree_param":{"num_deleted":"0","num_feature":"10","num_nodes":"7","size_leaf_vector":"1"}},{"base_weights":[1.4056098E-2,4.6312306E-2,-5.040809E-2],"categories":[],"categories_nodes":[],"categories_segments":[],"categories_sizes":[],"default_left":[0,0,0],"id":63,"left_children":[1,-1,-1],"loss_changes":[1.2480183E-1,0E0,0E0],"parents":[2147483647,0,0],"right_children":[2,-1,-1],"split_conditions":[3.8075417E-2,4.6312306E-2,-5.040809E-2],"split_indices":[5,0,0],"split_type":[0,0,0],"sum_hessian":[2.869449E0,1.7065276E0,1.1629212E0],"tree_param":{"num_deleted":"0","num_feature":"10","num_nodes":"3","size_leaf_vector":"1"}},{"base_weights":[-8.426686E-2,3.7300133E-3,-5.324186E-2],"categories":[],"categories_nodes":[],"categories_segments":[],"categories_sizes":[],"default_left":[0,0,0],"id":64,"left_children":[1,-1,-1],"loss_changes":[3.9097056E-2,0E0,0E0],"parents":[2147483647,0,0],"right_children":[2,-1,-1],"split_conditions":[1.6942075E-1,3.7300133E-3,-5.324186E-2],"split_indices":[7,0,0],"split_type":[0,0,0],"sum_hessian":[3.09301E0,1.9433786E0,1.1496314E0],"tree_param":{"num_deleted":"0","num_feature":"10","num_nodes":"3","size_leaf_vector":"1"}},{"base_weights":[5.852041E-2,-5.9528973E-2,7.706575E-2,3.790143E-2,-5.5376448E-2],"categories":[],"categories_nodes":[],"categories_segments":[],"categories_sizes":[],"default_left":[0,0,0,0,0],"id":65,"left_children":[1,3,-1,-1,-1],"loss_changes":[1.3154165E-1,1.1453347E-1,0E0,0E0,0E0],"parents":[2147483647,0,0,1,1],"right_children":[2,4,-1,-1,-1],"split_conditions":[-6.407142E-2,-6.436434E-1,7.706575E-2,3.790143E-2,-5.5376448E-2],"split_indices":[3,1,0,0,0],"split_type":[0,0,0,0,0],"sum_hessian":[3.9643383E0,2.924086E0,1.0402523E0,1.1719978E0,1.7520883E0],"tree_param":{"num_deleted":"0","num_feature":"10","num_nodes":"5","size_leaf_vector":"1"}},{"base_weights":[1.2789569E-2,4.2555604E-2,-4.6518385E-2],"categories":[],"categories_nodes":[],"categories_segments":[],"categories_sizes":[],"default_left":[0,0,0],"id":66,"left_children":[1,-1,-1],"loss_changes":[1.0308925E-1,0E0,0E0],"parents":[2147483647,0,0],"right_children":[2,-1,-1],"split_conditions":[3.8075417E-2,4.2555604E-2,-4.6518385E-2],"split_indices":[5,0,0],"split_type":[0,0,0],"sum_hessian":[2.7433686E0,1.6384432E0,1.1049254E0],"tree_param":{"num_deleted":"0","num_feature":"10","num_nodes":"3","size_leaf_vector":"1"}},{"base_weights":[-7.788501E-2,6.6110482E-3,-4.71051E-2],"categories":[],"categories_nodes":[],"categories_segments":[],"categories_sizes":[],"default_left":[0,0,0],"id":67,"left_children":[1,-1,-1],"loss_changes":[3.483343E-2,0E0,0E0],"parents":[2147483647,0,0],"right_children":[2,-1,-1],"split_conditions":[1.4614739E-1,6.6110482E-3,-4.71051E-2],"split_indices":[0,0,0],"split_type":[0,0,0],"sum_hessian":[2.9677775E0,1.6304668E0,1.3373108E0],"tree_param":{"num_deleted":"0","num_feature":"10","num_nodes":"3","size_leaf_vector":"1"}},{"base_weights":[5.4774083E-2,-4.7117557E-2,1.5299462E-1,-1.1354273E-2,7.152276E-2],"categories":[],"categories_nodes":[],"categories_segments":[],"categories_sizes":[],"default_left":[0,0,0,0,0],"id":68,"left_children":[1,-1,3,-1,-1],"loss_changes":[1.2323046E-1,0E0,7.037927E-2,0E0,0E0],"parents":[2147483647,0,0,2,2],"right_children":[2,-1,4,-1,-1],"split_conditions":[-5.171369E-2,-4.7117557E-2,-4.0217277E-1,-1.1354273E-2,7.152276E-2],"split_indices":[0,0,6,0,0],"split_type":[0,0,0,0,0],"sum_hessian":[3.7678483E0,1.0038347E0,2.7640138E0,1.0267766E0,1.7372371E0],"tree_param":{"num_deleted":"0","num_feature":"10","num_nodes":"5","size_leaf_vector":"1"}},{"base_weights":[1.600464E-2,3.933341E-2,-4.314489E-2],"categories":[],"categories_nodes":[],"categories_segments":[],"categories_sizes":[],"default_left":[0,0,0],"id":69,"left_children":[1,-1,-1],"loss_changes":[8.606475E-2,0E0,0E0],"parents":[2147483647,0,0],"right_children":[2,-1,-1],"split_conditions":[-5.790816E-2,3.933341E-2,-4.314489E-2],"split_indices":[8,0,0],"split_type":[0,0,0],"sum_hessian":[2.6533546E0,1.6468738E0,1.0064808E0],"tree_param":{"num_deleted":"0","num_feature":"10","num_nodes":"3","size_leaf_vector":"1"}},{"base_weights":[-6.851748E-2,7.1016783E-3,-4.8693355E-2],"categories":[],"categories_nodes":[],"categories_segments":[],"categories_sizes":[],"default_left":[0,0,0],"id":70,"left_children":[1,-1,-1],"loss_changes":[3.7331294E-2,0E0,0E0],"parents":[2147483647,0,0],"right_children":[2,-1,-1],"split_conditions":[1.6942075E-1,7.1016783E-3,-4.8693355E-2],"split_indices":[7,0,0],"split_type":[0,0,0],"sum_hessian":[2.8729887E0,1.8259135E0,1.047075E0],"tree_param":{"num_deleted":"0","num_feature":"10","num_nodes":"3","size_leaf_vector":"1"}},{"base_weights":[4.4838794E-2,-8.0290385E-2,6.4709455E-2,3.1698465E-2,-6.29546E-2],"categories":[],"categories_nodes":[],"categories_segments":[],"categories_sizes":[],"default_left":[0,0,0,0,0],"id":71,"left_children":[1,3,-1,-1,-1],"loss_changes":[1.1596873E-1,1.03899166E-1,0E0,0E0,0E0],"parents":[2147483647,0,0,1,1],"right_children":[2,4,-1,-1,-1],"split_conditions":[-2.215654E-1,-6.436434E-1,6.4709455E-2,3.1698465E-2,-6.29546E-2],"split_indices":[3,1,0,0,0],"split_type":[0,0,0,0,0],"sum_hessian":[3.6142454E0,2.392311E0,1.2219343E0,1.058097E0,1.3342142E0],"tree_param":{"num_deleted":"0","num_feature":"10","num_nodes":"5","size_leaf_vector":"1"}},{"base_weights":[1.3453391E-2,3.995984E-2,-3.7680943E-2],"categories":[],"categories_nodes":[],"categories_segments":[],"categories_sizes":[],"default_left":[0,0,0],"id":72,"left_children":[1,-1,-1],"loss_changes":[7.5854145E-2,0E0,0E0],"parents":[2147483647,0,0],"right_children":[2,-1,-1],"split_conditions":[-1.2022238E-1,3.995984E-2,-3.7680943E-2],"split_indices":[5,0,0],"split_type":[0,0,0],"sum_hessian":[2.550669E0,1.3931245E0,1.1575446E0],"tree_param":{"num_deleted":"0","num_feature":"10","num_nodes":"3","size_leaf_vector":"1"}},{"base_weights":[-6.1032977E-2,8.31244E-3,-4.1098334E-2],"categories":[],"categories_nodes":[],"categories_segments":[],"categories_sizes":[],"default_left":[0,0,0],"id":73,"left_children":[1,-1,-1],"loss_changes":[2.9251974E-2,0E0,0E0],"parents":[2147483647,0,0],"right_children":[2,-1,-1],"split_conditions":[1.4614739E-1,8.31244E-3,-4.1098334E-2],"split_indices":[0,0,0],"split_type":[0,0,0],"sum_hessian":[2.7763648E0,1.5734427E0,1.2029222E0],"tree_param":{"num_deleted":"0","num_feature":"10","num_nodes":"3","size_leaf_vector":"1"}},{"base_weights":[4.1057378E-2,-7.514172E-2,6.351287E-2,-5.4586112E-2,2.608059E-2],"categories":[],"categories_nodes":[],"categories_segments":[],"categories_sizes":[],"default_left":[0,0,0,0,0],"id":74,"left_children":[1,3,-1,-1,-1],"loss_changes":[1.0415481E-1,7.4428245E-2,0E0,0E0,0E0],"parents":[2147483647,0,0,1,1],"right_children":[2,4,-1,-1,-1],"split_conditions":[4.667872E-1,8.2080334E-2,6.351287E-2,-5.4586112E-2,2.608059E-2],"split_indices":[9,4,0,0,0],"split_type":[0,0,0,0,0],"sum_hessian":[3.4502392E0,2.3855612E0,1.064678E0,1.3640125E0,1.0215487E0],"tree_param":{"num_deleted":"0","num_feature":"10","num_nodes":"5","size_leaf_vector":"1"}},{"base_weights":[1.2397383E-2,3.8129736E-2,-3.3556096E-2],"categories":[],"categories_nodes":[],"categories_segments":[],"categories_sizes":[],"default_left":[0,0,0],"id":75,"left_children":[1,-1,-1],"loss_changes":[6.3637264E-2,0E0,0E0],"parents":[2147483647,0,0],"right_children":[2,-1,-1],"split_conditions":[-1.9937128E-1,3.8129736E-2,-3.3556096E-2],"split_indices":[5,0,0],"split_type":[0,0,0],"sum_hessian":[2.4676833E0,1.2712308E0,1.1964525E0],"tree_param":{"num_deleted":"0","num_feature":"10","num_nodes":"3","size_leaf_vector":"1"}},{"base_weights":[-5.3800832E-2,8.247603E-3,-3.7774265E-2],"categories":[],"categories_nodes":[],"categories_segments":[],"categories_sizes":[],"default_left":[0,0,0],"id":76,"left_children":[1,-1,-1],"loss_changes":[2.5162203E-2,0E0,0E0],"parents":[2147483647,0,0],"right_children":[2,-1,-1],"split_conditions":[1.4614739E-1,8.247603E-3,-3.7774265E-2],"split_indices":[0,0,0],"split_type":[0,0,0],"sum_hessian":[2.7017148E0,1.5608959E0,1.1408188E0],"tree_param":{"num_deleted":"0","num_feature":"10","num_nodes":"3","size_leaf_vector":"1"}},{"base_weights":[3.6228195E-2,-7.986978E-2,5.8628052E-2,2.2175616E-2,-5.6527525E-2],"categories":[],"categories_nodes":[],"categories_segments":[],"categories_sizes":[],"default_left":[0,0,0,0,0],"id":77,"left_children":[1,3,-1,-1,-1],"loss_changes":[9.52796E-2,6.739415E-2,0E0,0E0,0E0],"parents":[2147483647,0,0,1,1],"right_children":[2,4,-1,-1,-1],"split_conditions":[-2.215654E-1,-5.6855416E-1,5.8628052E-2,2.2175616E-2,-5.6527525E-2],"split_indices":[3,1,0,0,0],"split_type":[0,0,0,0,0],"sum_hessian":[3.3105803E0,2.2026014E0,1.1079787E0,1.0434425E0,1.159159E0],"tree_param":{"num_deleted":"0","num_feature":"10","num_nodes":"5","size_leaf_vector":"1"}},{"base_weights":[1.2665474E-2,3.6406465E-2,-3.3815894E-2],"categories":[],"categories_nodes":[],"categories_segments":[],"categories_sizes":[],"default_left":[0,0,0],"id":78,"left_children":[1,-1,-1],"loss_changes":[5.99711E-2,0E0,0E0],"parents":[2147483647,0,0],"right_children":[2,-1,-1],"split_conditions":[-5.7592684E-1,3.6406465E-2,-3.3815894E-2],"split_indices":[3,0,0],"split_type":[0,0,0],"sum_hessian":[2.3968234E0,1.301108E0,1.0957155E0],"tree_param":{"num_deleted":"0","num_feature":"10","num_nodes":"3","size_leaf_vector":"1"}},{"base_weights":[-4.78498E-2,8.407349E-3,-3.5159815E-2],"categories":[],"categories_nodes":[],"categories_segments":[],"categories_sizes":[],"default_left":[0,0,0],"id":79,"left_children":[1,-1,-1],"loss_changes":[2.2373868E-2,0E0,0E0],"parents":[2147483647,0,0],"right_children":[2,-1,-1],"split_conditions":[1.4614739E-1,8.407349E-3,-3.5159815E-2],"split_indices":[0,0,0],"split_type":[0,0,0],"sum_hessian":[2.6278906E0,1.5394727E0,1.0884179E0],"tree_param":{"num_deleted":"0","num_feature":"10","num_nodes":"3","size_leaf_vector":"1"}},{"base_weights":[3.1237198E-2,-7.705741E-2,5.4550596E-2,2.0310747E-2,-5.358099E-2],"categories":[],"categories_nodes":[],"categories_segments":[],"categories_sizes":[],"default_left":[0,0,0,0,0],"id":80,"left_children":[1,3,-1,-1,-1],"loss_changes":[8.218303E-2,5.8158927E-2,0E0,0E0,0E0],"parents":[2147483647,0,0,1,1],"right_children":[2,4,-1,-1,-1],"split_conditions":[-2.215654E-1,-5.6855416E-1,5.4550596E-2,2.0310747E-2,-5.358099E-2],"split_indices":[3,1,0,0,0],"split_type":[0,0,0,0,0],"sum_hessian":[3.1799889E0,2.1338608E0,1.046128E0,1.0171429E0,1.1167178E0],"tree_param":{"num_deleted":"0","num_feature":"10","num_nodes":"5","size_leaf_vector":"1"}},{"base_weights":[1.25166075E-2,3.4802463E-2,-3.2351363E-2],"categories":[],"categories_nodes":[],"categories_segments":[],"categories_sizes":[],"default_left":[0,0,0],"id":81,"left_children":[1,-1,-1],"loss_changes":[5.3942222E-2,0E0,0E0],"parents":[2147483647,0,0],"right_children":[2,-1,-1],"split_conditions":[-1.2022238E-1,3.4802463E-2,-3.2351363E-2],"split_indices":[5,0,0],"split_type":[0,0,0],"sum_hessian":[2.3263667E0,1.2702252E0,1.0561414E0],"tree_param":{"num_deleted":"0","num_feature":"10","num_nodes":"3","size_leaf_vector":"1"}},{"base_weights":[-4.384345E-2,9.321587E-3,-3.455181E-2],"categories":[],"categories_nodes":[],"categories_segments":[],"categories_sizes":[],"default_left":[0,0,0],"id":82,"left_children":[1,-1,-1],"loss_changes":[2.2554558E-2,0E0,0E0],"parents":[2147483647,0,0],"right_children":[2,-1,-1],"split_conditions":[6.924812E-2,9.321587E-3,-3.455181E-2],"split_indices":[7,0,0],"split_type":[0,0,0],"sum_hessian":[2.551109E0,1.5195495E0,1.0315596E0],"tree_param":{"num_deleted":"0","num_feature":"10","num_nodes":"3","size_leaf_vector":"1"}},{"base_weights":[2.8010095E-2,-2.7356232E-2,4.8656426E-2],"categories":[],"categories_nodes":[],"categories_segments":[],"categories_sizes":[],"default_left":[0,0,0],"id":83,"left_children":[1,-1,-1],"loss_changes":[7.9916544E-2,0E0,0E0],"parents":[2147483647,0,0],"right_children":[2,-1,-1],"split_conditions":[1.5980347E-1,-2.7356232E-2,4.8656426E-2],"split_indices":[4,0,0],"split_type":[0,0,0],"sum_hessian":[3.0720465E0,1.7965096E0,1.2755369E0],"tree_param":{"num_deleted":"0","num_feature":"10","num_nodes":"3","size_leaf_vector":"1"}},{"base_weights":[1.2500784E-2,3.474938E-2,-3.1526122E-2],"categories":[],"categories_nodes":[],"categories_segments":[],"categories_sizes":[],"default_left":[0,0,0],"id":84,"left_children":[1,-1,-1],"loss_changes":[5.1946606E-2,0E0,0E0],"parents":[2147483647,0,0],"right_children":[2,-1,-1],"split_conditions":[-5.7592684E-1,3.474938E-2,-3.1526122E-2],"split_indices":[3,0,0],"split_type":[0,0,0],"sum_hessian":[2.273489E0,1.2180578E0,1.0554314E0],"tree_param":{"num_deleted":"0","num_feature":"10","num_nodes":"3","size_leaf_vector":"1"}},{"base_weights":[-4.071635E-2,9.576586E-3,-3.3020172E-2],"categories":[],"categories_nodes":[],"categories_segments":[],"categories_sizes":[],"default_left":[0,0,0],"id":85,"left_children":[1,-1,-1],"loss_changes":[2.1224532E-2,0E0,0E0],"parents":[2147483647,0,0],"right_children":[2,-1,-1],"split_conditions":[1.4614739E-1,9.576586E-3,-3.3020172E-2],"split_indices":[0,0,0],"split_type":[0,0,0],"sum_hessian":[2.5158038E0,1.4923824E0,1.0234214E0],"tree_param":{"num_deleted":"0","num_feature":"10","num_nodes":"3","size_leaf_vector":"1"}},{"base_weights":[2.5517715E-2,-2.884221E-2,4.5656674E-2],"categories":[],"categories_nodes":[],"categories_segments":[],"categories_sizes":[],"default_left":[0,0,0],"id":86,"left_children":[1,-1,-1],"loss_changes":[7.636927E-2,0E0,0E0],"parents":[2147483647,0,0],"right_children":[2,-1,-1],"split_conditions":[1.4614739E-1,-2.884221E-2,4.5656674E-2],"split_indices":[0,0,0],"split_type":[0,0,0],"sum_hessian":[3.006181E0,1.6563754E0,1.3498057E0],"tree_param":{"num_deleted":"0","num_feature":"10","num_nodes":"3","size_leaf_vector":"1"}},{"base_weights":[1.0686947E-2,3.4036566E-2,-2.9037973E-2],"categories":[],"categories_nodes":[],"categories_segments":[],"categories_sizes":[],"default_left":[0,0,0],"id":87,"left_children":[1,-1,-1],"loss_changes":[4.664016E-2,0E0,0E0],"parents":[2147483647,0,0],"right_children":[2,-1,-1],"split_conditions":[-5.1669127E-1,3.4036566E-2,-2.9037973E-2],"split_indices":[9,0,0],"split_type":[0,0,0],"sum_hessian":[2.2283094E0,1.1107054E0,1.1176041E0],"tree_param":{"num_deleted":"0","num_feature":"10","num_nodes":"3","size_leaf_vector":"1"}},{"base_weights":[-3.597669E-2,-3.0625623E-2,1.0170406E-2],"categories":[],"categories_nodes":[],"categories_segments":[],"categories_sizes":[],"default_left":[0,0,0],"id":88,"left_children":[1,-1,-1],"loss_changes":[1.939797E-2,0E0,0E0],"parents":[2147483647,0,0],"right_children":[2,-1,-1],"split_conditions":[-2.7852017E-1,-3.0625623E-2,1.0170406E-2],"split_indices":[5,0,0],"split_type":[0,0,0],"sum_hessian":[2.4499352E0,1.0220797E0,1.4278554E0],"tree_param":{"num_deleted":"0","num_feature":"10","num_nodes":"3","size_leaf_vector":"1"}},{"base_weights":[2.278293E-2,-2.6525242E-2,4.471534E-2],"categories":[],"categories_nodes":[],"categories_segments":[],"categories_sizes":[],"default_left":[0,0,0],"id":89,"left_children":[1,-1,-1],"loss_changes":[6.840885E-2,0E0,0E0],"parents":[2147483647,0,0],"right_children":[2,-1,-1],"split_conditions":[1.5980347E-1,-2.6525242E-2,4.471534E-2],"split_indices":[4,0,0],"split_type":[0,0,0],"sum_hessian":[2.9334683E0,1.7191936E0,1.2142749E0],"tree_param":{"num_deleted":"0","num_feature":"10","num_nodes":"3","size_leaf_vector":"1"}},{"base_weights":[1.0824278E-2,3.2328762E-2,-2.8179027E-2],"categories":[],"categories_nodes":[],"categories_segments":[],"categories_sizes":[],"default_left":[0,0,0],"id":90,"left_children":[1,-1,-1],"loss_changes":[4.2392626E-2,0E0,0E0],"parents":[2147483647,0,0],"right_children":[2,-1,-1],"split_conditions":[-1.9937128E-1,3.2328762E-2,-2.8179027E-2],"split_indices":[5,0,0],"split_type":[0,0,0],"sum_hessian":[2.1778843E0,1.1162269E0,1.0616574E0],"tree_param":{"num_deleted":"0","num_feature":"10","num_nodes":"3","size_leaf_vector":"1"}},{"base_weights":[-3.4039162E-2,1.0397717E-2,-2.8840054E-2],"categories":[],"categories_nodes":[],"categories_segments":[],"categories_sizes":[],"default_left":[0,0,0],"id":91,"left_children":[1,-1,-1],"loss_changes":[1.7910885E-2,0E0,0E0],"parents":[2147483647,0,0],"right_children":[2,-1,-1],"split_conditions":[-2.932271E-1,1.0397717E-2,-2.8840054E-2],"split_indices":[1,0,0],"split_type":[0,0,0],"sum_hessian":[2.4176674E0,1.35756E0,1.0601072E0],"tree_param":{"num_deleted":"0","num_feature":"10","num_nodes":"3","size_leaf_vector":"1"}},{"base_weights":[2.1105556E-2,-2.6673924E-2,4.01798E-2],"categories":[],"categories_nodes":[],"categories_segments":[],"categories_sizes":[],"default_left":[0,0,0],"id":92,"left_children":[1,-1,-1],"loss_changes":[6.0098726E-2,0E0,0E0],"parents":[2147483647,0,0],"right_children":[2,-1,-1],"split_conditions":[-3.396859E-1,-2.6673924E-2,4.01798E-2],"split_indices":[3,0,0],"split_type":[0,0,0],"sum_hessian":[2.882223E0,1.5665857E0,1.3156374E0],"tree_param":{"num_deleted":"0","num_feature":"10","num_nodes":"3","size_leaf_vector":"1"}},{"base_weights":[6.679509E-3,3.200997E-2,-2.8512312E-2],"categories":[],"categories_nodes":[],"categories_segments":[],"categories_sizes":[],"default_left":[0,0,0],"id":93,"left_children":[1,-1,-1],"loss_changes":[4.20432E-2,0E0,0E0],"parents":[2147483647,0,0],"right_children":[2,-1,-1],"split_conditions":[-1.5108904E-1,3.200997E-2,-2.8512312E-2],"split_indices":[4,0,0],"split_type":[0,0,0],"sum_hessian":[2.1356332E0,1.0521336E0,1.0834996E0],"tree_param":{"num_deleted":"0","num_feature":"10","num_nodes":"3","size_leaf_vector":"1"}},{"base_weights":[-2.7339773E-2,1.0226255E-2,-2.53041E-2],"categories":[],"categories_nodes":[],"categories_segments":[],"categories_sizes":[],"default_left":[0,0,0],"id":94,"left_children":[1,-1,-1],"loss_changes":[1.4739832E-2,0E0,0E0],"parents":[2147483647,0,0],"right_children":[2,-1,-1],"split_conditions":[-2.932271E-1,1.0226255E-2,-2.53041E-2],"split_indices":[1,0,0],"split_type":[0,0,0],"sum_hessian":[2.3881593E0,1.3430378E0,1.0451216E0],"tree_param":{"num_deleted":"0","num_feature":"10","num_nodes":"3","size_leaf_vector":"1"}},{"base_weights":[1.8739663E-2,-2.55706E-2,4.1305277E-2],"categories":[],"categories_nodes":[],"categories_segments":[],"categories_sizes":[],"default_left":[0,0,0],"id":95,"left_children":[1,-1,-1],"loss_changes":[5.90457E-2,0E0,0E0],"parents":[2147483647,0,0],"right_children":[2,-1,-1],"split_conditions":[1.5980347E-1,-2.55706E-2,4.1305277E-2],"split_indices":[4,0,0],"split_type":[0,0,0],"sum_hessian":[2.8254325E0,1.6588008E0,1.1666317E0],"tree_param":{"num_deleted":"0","num_feature":"10","num_nodes":"3","size_leaf_vector":"1"}},{"base_weights":[7.4922093E-3,3.1042317E-2,-2.735534E-2],"categories":[],"categories_nodes":[],"categories_segments":[],"categories_sizes":[],"default_left":[0,0,0],"id":96,"left_children":[1,-1,-1],"loss_changes":[3.8770605E-2,0E0,0E0],"parents":[2147483647,0,0],"right_children":[2,-1,-1],"split_conditions":[-5.1669127E-1,3.1042317E-2,-2.735534E-2],"split_indices":[9,0,0],"split_type":[0,0,0],"sum_hessian":[2.0973206E0,1.0385293E0,1.0587914E0],"tree_param":{"num_deleted":"0","num_feature":"10","num_nodes":"3","size_leaf_vector":"1"}},{"base_weights":[-2.5661055E-2,1.1862652E-2,-2.4359087E-2],"categories":[],"categories_nodes":[],"categories_segments":[],"categories_sizes":[],"default_left":[0,0,0],"id":97,"left_children":[1,-1,-1],"loss_changes":[1.5396155E-2,0E0,0E0],"parents":[2147483647,0,0],"right_children":[2,-1,-1],"split_conditions":[4.7216848E-2,1.1862652E-2,-2.4359087E-2],"split_indices":[0,0,0],"split_type":[0,0,0],"sum_hessian":[2.365106E0,1.2203336E0,1.1447725E0],"tree_param":{"num_deleted":"0","num_feature":"10","num_nodes":"3","size_leaf_vector":"1"}},{"base_weights":[1.671328E-2,-3.2859527E-2,3.5166796E-2],"categories":[],"categories_nodes":[],"categories_segments":[],"categories_sizes":[],"default_left":[0,0,0],"id":98,"left_children":[1,-1,-1],"loss_changes":[6.0780432E-2,0E0,0E0],"parents":[2147483647,0,0],"right_children":[2,-1,-1],"split_conditions":[4.7216848E-2,-3.2859527E-2,3.5166796E-2],"split_indices":[0,0,0],"split_type":[0,0,0],"sum_hessian":[2.7781982E0,1.191653E0,1.5865453E0],"tree_param":{"num_deleted":"0","num_feature":"10","num_nodes":"3","size_leaf_vector":"1"}},{"base_weights":[8.014838E-3,2.9053278E-2,-2.6225412E-2],"categories":[],"categories_nodes":[],"categories_segments":[],"categories_sizes":[],"default_left":[0,0,0],"id":99,"left_children":[1,-1,-1],"loss_changes":[3.4449395E-2,0E0,0E0],"parents":[2147483647,0,0],"right_children":[2,-1,-1],"split_conditions":[-1.9937128E-1,2.9053278E-2,-2.6225412E-2],"split_indices":[5,0,0],"split_type":[0,0,0],"sum_hessian":[2.0650826E0,1.0618851E0,1.0031974E0],"tree_param":{"num_deleted":"0","num_feature":"10","num_nodes":"3","size_leaf_vector":"1"}},{"base_weights":[-2.1696743E-2,-2.1551348E-2,1.4121324E-2],"categories":[],"categories_nodes":[],"categories_segments":[],"categories_sizes":[],"default_left":[0,0,0],"id":100,"left_children":[1,-1,-1],"loss_changes":[1.4839924E-2,0E0,0E0],"parents":[2147483647,0,0],"right_children":[2,-1,-1],"split_conditions":[-4.1073482E-2,-2.1551348E-2,1.4121324E-2],"split_indices":[5,0,0],"split_type":[0,0,0],"sum_hessian":[2.3231242E0,1.3176993E0,1.0054249E0],"tree_param":{"num_deleted":"0","num_feature":"10","num_nodes":"3","size_leaf_vector":"1"}},{"base_weights":[1.2773091E-2,-2.6427517E-2,3.55339E-2],"categories":[],"categories_nodes":[],"categories_segments":[],"categories_sizes":[],"default_left":[0,0,0],"id":101,"left_children":[1,-1,-1],"loss_changes":[5.0100777E-2,0E0,0E0],"parents":[2147483647,0,0],"right_children":[2,-1,-1],"split_conditions":[-3.396859E-1,-2.6427517E-2,3.55339E-2],"split_indices":[3,0,0],"split_type":[0,0,0],"sum_hessian":[2.7215235E0,1.4775666E0,1.2439569E0],"tree_param":{"num_deleted":"0","num_feature":"10","num_nodes":"3","size_leaf_vector":"1"}},{"base_weights":[3.7434031E-3,2.690748E-2,-2.5043441E-2],"categories":[],"categories_nodes":[],"categories_segments":[],"categories_sizes":[],"default_left":[0,0,0],"id":102,"left_children":[1,-1,-1],"loss_changes":[3.0197272E-2,0E0,0E0],"parents":[2147483647,0,0],"right_children":[2,-1,-1],"split_conditions":[-5.1669127E-1,2.690748E-2,-2.5043441E-2],"split_indices":[9,0,0],"split_type":[0,0,0],"sum_hessian":[2.0293987E0,1.0078968E0,1.0215019E0],"tree_param":{"num_deleted":"0","num_feature":"10","num_nodes":"3","size_leaf_vector":"1"}},{"base_weights":[-1.595698E-2,1.1965501E-2,-2.0140491E-2],"categories":[],"categories_nodes":[],"categories_segments":[],"categories_sizes":[],"default_left":[0,0,0],"id":103,"left_children":[1,-1,-1],"loss_changes":[1.2114461E-2,0E0,0E0],"parents":[2147483647,0,0],"right_children":[2,-1,-1],"split_conditions":[4.7216848E-2,1.1965501E-2,-2.0140491E-2],"split_indices":[0,0,0],"split_type":[0,0,0],"sum_hessian":[2.3020213E0,1.2063712E0,1.0956501E0],"tree_param":{"num_deleted":"0","num_feature":"10","num_nodes":"3","size_leaf_vector":"1"}},{"base_weights":[1.1243343E-2,-2.5552832E-2,3.7218653E-2],"categories":[],"categories_nodes":[],"categories_segments":[],"categories_sizes":[],"default_left":[0,0,0],"id":104,"left_children":[1,-1,-1],"loss_changes":[5.057345E-2,0E0,0E0],"parents":[2147483647,0,0],"right_children":[2,-1,-1],"split_conditions":[1.5980347E-1,-2.5552832E-2,3.7218653E-2],"split_indices":[4,0,0],"split_type":[0,0,0],"sum_hessian":[2.6777513E0,1.5759234E0,1.1018279E0],"tree_param":{"num_deleted":"0","num_feature":"10","num_nodes":"3","size_leaf_vector":"1"}},{"base_weights":[5.5070785E-3],"categories":[],"categories_nodes":[],"categories_segments":[],"categories_sizes":[],"default_left":[0],"id":105,"left_children":[-1],"loss_changes":[0E0],"parents":[2147483647],"right_children":[-1],"split_conditions":[1.6521236E-3],"split_indices":[0],"split_type":[0],"sum_hessian":[1.999685E0],"tree_param":{"num_deleted":"0","num_feature":"10","num_nodes":"1","size_leaf_vector":"1"}},{"base_weights":[-1.5864538E-2,1.1371933E-2,-1.9491663E-2],"categories":[],"categories_nodes":[],"categories_segments":[],"categories_sizes":[],"default_left":[0,0,0],"id":106,"left_children":[1,-1,-1],"loss_changes":[1.1117866E-2,0E0,0E0],"parents":[2147483647,0,0],"right_children":[2,-1,-1],"split_conditions":[4.7216848E-2,1.1371933E-2,-1.9491663E-2],"split_indices":[0,0,0],"split_type":[0,0,0],"sum_hessian":[2.277705E0,1.1961083E0,1.0815965E0],"tree_param":{"num_deleted":"0","num_feature":"10","num_nodes":"3","size_leaf_vector":"1"}},{"base_weights":[9.757606E-3,-2.4923392E-2,3.4033634E-2],"categories":[],"categories_nodes":[],"categories_segments":[],"categories_sizes":[],"default_left":[0,0,0],"id":107,"left_children":[1,-1,-1],"loss_changes":[4.4424944E-2,0E0,0E0],"parents":[2147483647,0,0],"right_children":[2,-1,-1],"split_conditions":[1.4614739E-1,-2.4923392E-2,3.4033634E-2],"split_indices":[0,0,0],"split_type":[0,0,0],"sum_hessian":[2.6360302E0,1.4956698E0,1.1403604E0],"tree_param":{"num_deleted":"0","num_feature":"10","num_nodes":"3","size_leaf_vector":"1"}},{"base_weights":[4.181073E-3],"categories":[],"categories_nodes":[],"categories_segments":[],"categories_sizes":[],"default_left":[0],"id":108,"left_children":[-1],"loss_changes":[0E0],"parents":[2147483647],"right_children":[-1],"split_conditions":[1.254322E-3],"split_indices":[0],"split_type":[0],"sum_hessian":[1.9930408E0],"tree_param":{"num_deleted":"0","num_feature":"10","num_nodes":"1","size_leaf_vector":"1"}},{"base_weights":[-1.3327942E-2,-1.912739E-2,1.19362725E-2],"categories":[],"categories_nodes":[],"categories_segments":[],"categories_sizes":[],"default_left":[0,0,0],"id":109,"left_children":[1,-1,-1],"loss_changes":[1.1241841E-2,0E0,0E0],"parents":[2147483647,0,0],"right_children":[2,-1,-1],"split_conditions":[-1.9937128E-1,-1.912739E-2,1.19362725E-2],"split_indices":[5,0,0],"split_type":[0,0,0],"sum_hessian":[2.2498367E0,1.0513132E0,1.1985235E0],"tree_param":{"num_deleted":"0","num_feature":"10","num_nodes":"3","size_leaf_vector":"1"}},{"base_weights":[8.555358E-3,-2.5212348E-2,3.525596E-2],"categories":[],"categories_nodes":[],"categories_segments":[],"categories_sizes":[],"default_left":[0,0,0],"id":110,"left_children":[1,-1,-1],"loss_changes":[4.619935E-2,0E0,0E0],"parents":[2147483647,0,0],"right_children":[2,-1,-1],"split_conditions":[1.5980347E-1,-2.5212348E-2,3.525596E-2],"split_indices":[4,0,0],"split_type":[0,0,0],"sum_hessian":[2.5999799E0,1.5292089E0,1.0707711E0],"tree_param":{"num_deleted":"0","num_feature":"10","num_nodes":"3","size_leaf_vector":"1"}},{"base_weights":[4.4171023E-3],"categories":[],"categories_nodes":[],"categories_segments":[],"categories_sizes":[],"default_left":[0],"id":111,"left_children":[-1],"loss_changes":[0E0],"parents":[2147483647],"right_children":[-1],"split_conditions":[1.3251307E-3],"split_indices":[0],"split_type":[0],"sum_hessian":[1.9777234E0],"tree_param":{"num_deleted":"0","num_feature":"10","num_nodes":"1","size_leaf_vector":"1"}},{"base_weights":[-1.3730072E-2,-1.7857198E-2,1.0567121E-2],"categories":[],"categories_nodes":[],"categories_segments":[],"categories_sizes":[],"default_left":[0,0,0],"id":112,"left_children":[1,-1,-1],"loss_changes":[9.354597E-3,0E0,0E0],"parents":[2147483647,0,0],"right_children":[2,-1,-1],"split_conditions":[-1.9937128E-1,-1.7857198E-2,1.0567121E-2],"split_indices":[5,0,0],"split_type":[0,0,0],"sum_hessian":[2.2375693E0,1.0445355E0,1.1930339E0],"tree_param":{"num_deleted":"0","num_feature":"10","num_nodes":"3","size_leaf_vector":"1"}},{"base_weights":[8.749772E-3,-2.5548715E-2,3.23116E-2],"categories":[],"categories_nodes":[],"categories_segments":[],"categories_sizes":[],"default_left":[0,0,0],"id":113,"left_children":[1,-1,-1],"loss_changes":[4.2415254E-2,0E0,0E0],"parents":[2147483647,0,0],"right_children":[2,-1,-1],"split_conditions":[-3.396859E-1,-2.5548715E-2,3.23116E-2],"split_indices":[3,0,0],"split_type":[0,0,0],"sum_hessian":[2.5771382E0,1.393781E0,1.1833574E0],"tree_param":{"num_deleted":"0","num_feature":"10","num_nodes":"3","size_leaf_vector":"1"}},{"base_weights":[7.921654E-4],"categories":[],"categories_nodes":[],"categories_segments":[],"categories_sizes":[],"default_left":[0],"id":114,"left_children":[-1],"loss_changes":[0E0],"parents":[2147483647],"right_children":[-1],"split_conditions":[2.3764963E-4],"split_indices":[0],"split_type":[0],"sum_hessian":[1.9621342E0],"tree_param":{"num_deleted":"0","num_feature":"10","num_nodes":"1","size_leaf_vector":"1"}},{"base_weights":[-9.986972E-3,1.11001525E-2,-1.6683575E-2],"categories":[],"categories_nodes":[],"categories_segments":[],"categories_sizes":[],"default_left":[0,0,0],"id":115,"left_children":[1,-1,-1],"loss_changes":[8.970152E-3,0E0,0E0],"parents":[2147483647,0,0],"right_children":[2,-1,-1],"split_conditions":[4.7216848E-2,1.11001525E-2,-1.6683575E-2],"split_indices":[0,0,0],"split_type":[0,0,0],"sum_hessian":[2.224405E0,1.1889634E0,1.0354415E0],"tree_param":{"num_deleted":"0","num_feature":"10","num_nodes":"3","size_leaf_vector":"1"}},{"base_weights":[8.405186E-3,-2.387552E-2,3.3283226E-2],"categories":[],"categories_nodes":[],"categories_segments":[],"categories_sizes":[],"default_left":[0,0,0],"id":116,"left_children":[1,-1,-1],"loss_changes":[4.0877253E-2,0E0,0E0],"parents":[2147483647,0,0],"right_children":[2,-1,-1],"split_conditions":[1.5980347E-1,-2.387552E-2,3.3283226E-2],"split_indices":[4,0,0],"split_type":[0,0,0],"sum_hessian":[2.5520127E0,1.4939153E0,1.0580975E0],"tree_param":{"num_deleted":"0","num_feature":"10","num_nodes":"3","size_leaf_vector":"1"}},{"base_weights":[2.585553E-3],"categories":[],"categories_nodes":[],"categories_segments":[],"categories_sizes":[],"default_left":[0],"id":117,"left_children":[-1],"loss_changes":[0E0],"parents":[2147483647],"right_children":[-1],"split_conditions":[7.75666E-4],"split_indices":[0],"split_type":[0],"sum_hessian":[1.9525666E0],"tree_param":{"num_deleted":"0","num_feature":"10","num_nodes":"1","size_leaf_vector":"1"}},{"base_weights":[-1.0691634E-2,1.0236852E-2,-1.6115392E-2],"categories":[],"categories_nodes":[],"categories_segments":[],"categories_sizes":[],"default_left":[0,0,0],"id":118,"left_children":[1,-1,-1],"loss_changes":[8.025415E-3,0E0,0E0],"parents":[2147483647,0,0],"right_children":[2,-1,-1],"split_conditions":[4.7216848E-2,1.0236852E-2,-1.6115392E-2],"split_indices":[0,0,0],"split_type":[0,0,0],"sum_hessian":[2.211491E0,1.1845958E0,1.0268954E0],"tree_param":{"num_deleted":"0","num_feature":"10","num_nodes":"3","size_leaf_vector":"1"}},{"base_weights":[7.572642E-3,-2.427085E-2,3.0143853E-2],"categories":[],"categories_nodes":[],"categories_segments":[],"categories_sizes":[],"default_left":[0,0,0],"id":119,"left_children":[1,-1,-1],"loss_changes":[3.711469E-2,0E0,0E0],"parents":[2147483647,0,0],"right_children":[2,-1,-1],"split_conditions":[-3.396859E-1,-2.427085E-2,3.0143853E-2],"split_indices":[3,0,0],"split_type":[0,0,0],"sum_hessian":[2.5262396E0,1.3601602E0,1.1660795E0],"tree_param":{"num_deleted":"0","num_feature":"10","num_nodes":"3","size_leaf_vector":"1"}},{"base_weights":[4.406019E-4],"categories":[],"categories_nodes":[],"categories_segments":[],"categories_sizes":[],"default_left":[0],"id":120,"left_children":[-1],"loss_changes":[0E0],"parents":[2147483647],"right_children":[-1],"split_conditions":[1.3218058E-4],"split_indices":[0],"split_type":[0],"sum_hessian":[1.9422895E0],"tree_param":{"num_deleted":"0","num_feature":"10","num_nodes":"1","size_leaf_vector":"1"}},{"base_weights":[-7.4879006E-3,-1.5137729E-2,1.0843925E-2],"categories":[],"categories_nodes":[],"categories_segments":[],"categories_sizes":[],"default_left":[0,0,0],"id":121,"left_children":[1,-1,-1],"loss_changes":[7.819847E-3,0E0,0E0],"parents":[2147483647,0,0],"right_children":[2,-1,-1],"split_conditions":[-1.9937128E-1,-1.5137729E-2,1.0843925E-2],"split_indices":[5,0,0],"split_type":[0,0,0],"sum_hessian":[2.1977987E0,1.0285105E0,1.1692883E0],"tree_param":{"num_deleted":"0","num_feature":"10","num_nodes":"3","size_leaf_vector":"1"}},{"base_weights":[6.4735725E-3,-2.3453645E-2,3.1569455E-2],"categories":[],"categories_nodes":[],"categories_segments":[],"categories_sizes":[],"default_left":[0,0,0],"id":122,"left_children":[1,-1,-1],"loss_changes":[3.747601E-2,0E0,0E0],"parents":[2147483647,0,0],"right_children":[2,-1,-1],"split_conditions":[1.5980347E-1,-2.3453645E-2,3.1569455E-2],"split_indices":[4,0,0],"split_type":[0,0,0],"sum_hessian":[2.49866E0,1.4576151E0,1.0410451E0],"tree_param":{"num_deleted":"0","num_feature":"10","num_nodes":"3","size_leaf_vector":"1"}},{"base_weights":[1.1606937E-3],"categories":[],"categories_nodes":[],"categories_segments":[],"categories_sizes":[],"default_left":[0],"id":123,"left_children":[-1],"loss_changes":[0E0],"parents":[2147483647],"right_children":[-1],"split_conditions":[3.4820812E-4],"split_indices":[0],"split_type":[0],"sum_hessian":[1.9302214E0],"tree_param":{"num_deleted":"0","num_feature":"10","num_nodes":"1","size_leaf_vector":"1"}},{"base_weights":[-8.404806E-3,-1.4642025E-2,1.1698877E-2],"categories":[],"categories_nodes":[],"categories_segments":[],"categories_sizes":[],"default_left":[0,0,0],"id":124,"left_children":[1,-1,-1],"loss_changes":[8.010537E-3,0E0,0E0],"parents":[2147483647,0,0],"right_children":[2,-1,-1],"split_conditions":[-1.5108904E-1,-1.4642025E-2,1.1698877E-2],"split_indices":[4,0,0],"split_type":[0,0,0],"sum_hessian":[2.1890094E0,1.1657424E0,1.023267E0],"tree_param":{"num_deleted":"0","num_feature":"10","num_nodes":"3","size_leaf_vector":"1"}},{"base_weights":[6.723386E-3,-2.7199207E-2,2.6896724E-2],"categories":[],"categories_nodes":[],"categories_segments":[],"categories_sizes":[],"default_left":[0,0,0],"id":125,"left_children":[1,-1,-1],"loss_changes":[3.6240675E-2,0E0,0E0],"parents":[2147483647,0,0],"right_children":[2,-1,-1],"split_conditions":[4.7216848E-2,-2.7199207E-2,2.6896724E-2],"split_indices":[0,0,0],"split_type":[0,0,0],"sum_hessian":[2.480702E0,1.0980426E0,1.3826594E0],"tree_param":{"num_deleted":"0","num_feature":"10","num_nodes":"3","size_leaf_vector":"1"}},{"base_weights":[8.008333E-4],"categories":[],"categories_nodes":[],"categories_segments":[],"categories_sizes":[],"default_left":[0],"id":126,"left_children":[-1],"loss_changes":[0E0],"parents":[2147483647],"right_children":[-1],"split_conditions":[2.4025E-4],"split_indices":[0],"split_type":[0],"sum_hessian":[1.9205731E0],"tree_param":{"num_deleted":"0","num_feature":"10","num_nodes":"1","size_leaf_vector":"1"}},{"base_weights":[-6.7642997E-3,-1.3413339E-2,1.111691E-2],"categories":[],"categories_nodes":[],"categories_segments":[],"categories_sizes":[],"default_left":[0,0,0],"id":127,"left_children":[1,-1,-1],"loss_changes":[6.930341E-3,0E0,0E0],"parents":[2147483647,0,0],"right_children":[2,-1,-1],"split_conditions":[-1.5108904E-1,-1.3413339E-2,1.111691E-2],"split_indices":[4,0,0],"split_type":[0,0,0],"sum_hessian":[2.1713579E0,1.1527793E0,1.0185784E0],"tree_param":{"num_deleted":"0","num_feature":"10","num_nodes":"3","size_leaf_vector":"1"}},{"base_weights":[5.526432E-3,-2.2563418E-2,2.9983504E-2],"categories":[],"categories_nodes":[],"categories_segments":[],"categories_sizes":[],"default_left":[0,0,0],"id":128,"left_children":[1,-1,-1],"loss_changes":[3.388092E-2,0E0,0E0],"parents":[2147483647,0,0],"right_children":[2,-1,-1],"split_conditions":[1.5980347E-1,-2.2563418E-2,2.9983504E-2],"split_indices":[4,0,0],"split_type":[0,0,0],"sum_hessian":[2.4584014E0,1.434866E0,1.0235355E0],"tree_param":{"num_deleted":"0","num_feature":"10","num_nodes":"3","size_leaf_vector":"1"}},{"base_weights":[1.3825082E-3],"categories":[],"categories_nodes":[],"categories_segments":[],"categories_sizes":[],"default_left":[0],"id":129,"left_children":[-1],"loss_changes":[0E0],"parents":[2147483647],"right_children":[-1],"split_conditions":[4.147525E-4],"split_indices":[0],"split_type":[0],"sum_hessian":[1.9093423E0],"tree_param":{"num_deleted":"0","num_feature":"10","num_nodes":"1","size_leaf_vector":"1"}},{"base_weights":[-7.4265967E-3,-1.33822905E-2,1.0801305E-2],"categories":[],"categories_nodes":[],"categories_segments":[],"categories_sizes":[],"default_left":[0,0,0],"id":130,"left_children":[1,-1,-1],"loss_changes":[6.7143366E-3,0E0,0E0],"parents":[2147483647,0,0],"right_children":[2,-1,-1],"split_conditions":[-1.5108904E-1,-1.33822905E-2,1.0801305E-2],"split_indices":[4,0,0],"split_type":[0,0,0],"sum_hessian":[2.163391E0,1.1509634E0,1.0124277E0],"tree_param":{"num_deleted":"0","num_feature":"10","num_nodes":"3","size_leaf_vector":"1"}},{"base_weights":[5.655983E-3,-2.2344297E-2,2.9467465E-2],"categories":[],"categories_nodes":[],"categories_segments":[],"categories_sizes":[],"default_left":[0,0,0],"id":131,"left_children":[1,-1,-1],"loss_changes":[3.285258E-2,0E0,0E0],"parents":[2147483647,0,0],"right_children":[2,-1,-1],"split_conditions":[1.4614739E-1,-2.2344297E-2,2.9467465E-2],"split_indices":[0,0,0],"split_type":[0,0,0],"sum_hessian":[2.4424415E0,1.4138606E0,1.0285809E0],"tree_param":{"num_deleted":"0","num_feature":"10","num_nodes":"3","size_leaf_vector":"1"}},{"base_weights":[-3.3710204E-4],"categories":[],"categories_nodes":[],"categories_segments":[],"categories_sizes":[],"default_left":[0],"id":132,"left_children":[-1],"loss_changes":[0E0],"parents":[2147483647],"right_children":[-1],"split_conditions":[-1.01130616E-4],"split_indices":[0],"split_type":[0],"sum_hessian":[1.9015976E0],"tree_param":{"num_deleted":"0","num_feature":"10","num_nodes":"1","size_leaf_vector":"1"}},{"base_weights":[-5.9542926E-3,-1.3415651E-2,9.908552E-3],"categories":[],"categories_nodes":[],"categories_segments":[],"categories_sizes":[],"default_left":[0,0,0],"id":133,"left_children":[1,-1,-1],"loss_changes":[6.2302267E-3,0E0,0E0],"parents":[2147483647,0,0],"right_children":[2,-1,-1],"split_conditions":[-1.9937128E-1,-1.3415651E-2,9.908552E-3],"split_indices":[5,0,0],"split_type":[0,0,0],"sum_hessian":[2.1454384E0,1.0019528E0,1.1434857E0],"tree_param":{"num_deleted":"0","num_feature":"10","num_nodes":"3","size_leaf_vector":"1"}},{"base_weights":[5.7611936E-3,-2.1919586E-2,2.91386E-2],"categories":[],"categories_nodes":[],"categories_segments":[],"categories_sizes":[],"default_left":[0,0,0],"id":134,"left_children":[1,-1,-1],"loss_changes":[3.1733338E-2,0E0,0E0],"parents":[2147483647,0,0],"right_children":[2,-1,-1],"split_conditions":[1.5980347E-1,-2.1919586E-2,2.91386E-2],"split_indices":[4,0,0],"split_type":[0,0,0],"sum_hessian":[2.4207168E0,1.4070828E0,1.013634E0],"tree_param":{"num_deleted":"0","num_feature":"10","num_nodes":"3","size_leaf_vector":"1"}},{"base_weights":[4.2592632E-4],"categories":[],"categories_nodes":[],"categories_segments":[],"categories_sizes":[],"default_left":[0],"id":135,"left_children":[-1],"loss_changes":[0E0],"parents":[2147483647],"right_children":[-1],"split_conditions":[1.2777791E-4],"split_indices":[0],"split_type":[0],"sum_hessian":[1.8916906E0],"tree_param":{"num_deleted":"0","num_feature":"10","num_nodes":"1","size_leaf_vector":"1"}},{"base_weights":[-6.926507E-3,-1.3148248E-2,1.0784059E-2],"categories":[],"categories_nodes":[],"categories_segments":[],"categories_sizes":[],"default_left":[0,0,0],"id":136,"left_children":[1,-1,-1],"loss_changes":[6.5401727E-3,0E0,0E0],"parents":[2147483647,0,0],"right_children":[2,-1,-1],"split_conditions":[-1.5108904E-1,-1.3148248E-2,1.0784059E-2],"split_indices":[4,0,0],"split_type":[0,0,0],"sum_hessian":[2.1381128E0,1.137132E0,1.0009809E0],"tree_param":{"num_deleted":"0","num_feature":"10","num_nodes":"3","size_leaf_vector":"1"}},{"base_weights":[6.020542E-3,-2.319856E-2,2.792968E-2],"categories":[],"categories_nodes":[],"categories_segments":[],"categories_sizes":[],"default_left":[0,0,0],"id":137,"left_children":[1,-1,-1],"loss_changes":[3.191752E-2,0E0,0E0],"parents":[2147483647,0,0],"right_children":[2,-1,-1],"split_conditions":[-3.396859E-1,-2.319856E-2,2.792968E-2],"split_indices":[3,0,0],"split_type":[0,0,0],"sum_hessian":[2.4057102E0,1.2863845E0,1.1193258E0],"tree_param":{"num_deleted":"0","num_feature":"10","num_nodes":"3","size_leaf_vector":"1"}},{"base_weights":[-2.3356322E-3],"categories":[],"categories_nodes":[],"categories_segments":[],"categories_sizes":[],"default_left":[0],"id":138,"left_children":[-1],"loss_changes":[0E0],"parents":[2147483647],"right_children":[-1],"split_conditions":[-7.006897E-4],"split_indices":[0],"split_type":[0],"sum_hessian":[1.8793792E0],"tree_param":{"num_deleted":"0","num_feature":"10","num_nodes":"1","size_leaf_vector":"1"}},{"base_weights":[-3.9943727E-3,-1.1588824E-2,9.128974E-3],"categories":[],"categories_nodes":[],"categories_segments":[],"categories_sizes":[],"default_left":[0,0,0],"id":139,"left_children":[1,-1,-1],"loss_changes":[4.9065948E-3,0E0,0E0],"parents":[2147483647,0,0],"right_children":[2,-1,-1],"split_conditions":[-1.9937128E-1,-1.1588824E-2,9.128974E-3],"split_indices":[5,0,0],"split_type":[0,0,0],"sum_hessian":[2.1293693E0,1.000544E0,1.1288254E0],"tree_param":{"num_deleted":"0","num_feature":"10","num_nodes":"3","size_leaf_vector":"1"}},{"base_weights":[5.6764185E-3,-2.4646837E-2,2.4485042E-2],"categories":[],"categories_nodes":[],"categories_segments":[],"categories_sizes":[],"default_left":[0,0,0],"id":140,"left_children":[1,-1,-1],"loss_changes":[2.929671E-2,0E0,0E0],"parents":[2147483647,0,0],"right_children":[2,-1,-1],"split_conditions":[4.7216848E-2,-2.4646837E-2,2.4485042E-2],"split_indices":[0,0,0],"split_type":[0,0,0],"sum_hessian":[2.3869963E0,1.0688803E0,1.318116E0],"tree_param":{"num_deleted":"0","num_feature":"10","num_nodes":"3","size_leaf_vector":"1"}},{"base_weights":[-2.1459337E-3],"categories":[],"categories_nodes":[],"categories_segments":[],"categories_sizes":[],"default_left":[0],"id":141,"left_children":[-1],"loss_changes":[0E0],"parents":[2147483647],"right_children":[-1],"split_conditions":[-6.437801E-4],"split_indices":[0],"split_type":[0],"sum_hessian":[1.8725336E0],"tree_param":{"num_deleted":"0","num_feature":"10","num_nodes":"1","size_leaf_vector":"1"}},{"base_weights":[-3.2369257E-3,-9.922295E-3,8.851722E-3],"categories":[],"categories_nodes":[],"categories_segments":[],"categories_sizes":[],"default_left":[0,0,0],"id":142,"left_children":[1,-1,-1],"loss_changes":[4.019493E-3,0E0,0E0],"parents":[2147483647,0,0],"right_children":[2,-1,-1],"split_conditions":[-1.2022238E-1,-9.922295E-3,8.851722E-3],"split_indices":[5,0,0],"split_type":[0,0,0],"sum_hessian":[2.1154037E0,1.1015059E0,1.0138978E0],"tree_param":{"num_deleted":"0","num_feature":"10","num_nodes":"3","size_leaf_vector":"1"}},{"base_weights":[4.823664E-3,-2.3163967E-2,2.6029872E-2],"categories":[],"categories_nodes":[],"categories_segments":[],"categories_sizes":[],"default_left":[0,0,0],"id":143,"left_children":[1,-1,-1],"loss_changes":[2.9344473E-2,0E0,0E0],"parents":[2147483647,0,0],"right_children":[2,-1,-1],"split_conditions":[1.6942075E-1,-2.3163967E-2,2.6029872E-2],"split_indices":[7,0,0],"split_type":[0,0,0],"sum_hessian":[2.368628E0,1.2124739E0,1.156154E0],"tree_param":{"num_deleted":"0","num_feature":"10","num_nodes":"3","size_leaf_vector":"1"}},{"base_weights":[-5.090361E-4],"categories":[],"categories_nodes":[],"categories_segments":[],"categories_sizes":[],"default_left":[0],"id":144,"left_children":[-1],"loss_changes":[0E0],"parents":[2147483647],"right_children":[-1],"split_conditions":[-1.5271084E-4],"split_indices":[0],"split_type":[0],"sum_hessian":[1.8678374E0],"tree_param":{"num_deleted":"0","num_feature":"10","num_nodes":"1","size_leaf_vector":"1"}},{"base_weights":[-4.3152585E-3,-9.444765E-3,7.87946E-3],"categories":[],"categories_nodes":[],"categories_segments":[],"categories_sizes":[],"default_left":[0,0,0],"id":145,"left_children":[1,-1,-1],"loss_changes":[3.407139E-3,0E0,0E0],"parents":[2147483647,0,0],"right_children":[2,-1,-1],"split_conditions":[-1.2022238E-1,-9.444765E-3,7.87946E-3],"split_indices":[5,0,0],"split_type":[0,0,0],"sum_hessian":[2.105824E0,1.0995114E0,1.0063126E0],"tree_param":{"num_deleted":"0","num_feature":"10","num_nodes":"3","size_leaf_vector":"1"}},{"base_weights":[4.4295085E-3,-2.1819143E-2,2.5628868E-2],"categories":[],"categories_nodes":[],"categories_segments":[],"categories_sizes":[],"default_left":[0,0,0],"id":146,"left_children":[1,-1,-1],"loss_changes":[2.7185012E-2,0E0,0E0],"parents":[2147483647,0,0],"right_children":[2,-1,-1],"split_conditions":[-3.396859E-1,-2.1819143E-2,2.5628868E-2],"split_indices":[3,0,0],"split_type":[0,0,0],"sum_hessian":[2.3554888E0,1.2586257E0,1.0968632E0],"tree_param":{"num_deleted":"0","num_feature":"10","num_nodes":"3","size_leaf_vector":"1"}},{"base_weights":[-2.9385483E-3],"categories":[],"categories_nodes":[],"categories_segments":[],"categories_sizes":[],"default_left":[0],"id":147,"left_children":[-1],"loss_changes":[0E0],"parents":[2147483647],"right_children":[-1],"split_conditions":[-8.815645E-4],"split_indices":[0],"split_type":[0],"sum_hessian":[1.8576046E0],"tree_param":{"num_deleted":"0","num_feature":"10","num_nodes":"1","size_leaf_vector":"1"}},{"base_weights":[-1.8730514E-3,-1.0326607E-2,9.077712E-3],"categories":[],"categories_nodes":[],"categories_segments":[],"categories_sizes":[],"default_left":[0,0,0],"id":148,"left_children":[1,-1,-1],"loss_changes":[4.283101E-3,0E0,0E0],"parents":[2147483647,0,0],"right_children":[2,-1,-1],"split_conditions":[-3.7905937E-1,-1.0326607E-2,9.077712E-3],"split_indices":[3,0,0],"split_type":[0,0,0],"sum_hessian":[2.099367E0,1.0075146E0,1.0918523E0],"tree_param":{"num_deleted":"0","num_feature":"10","num_nodes":"3","size_leaf_vector":"1"}},{"base_weights":[4.252886E-3,-2.1706667E-2,2.5816504E-2],"categories":[],"categories_nodes":[],"categories_segments":[],"categories_sizes":[],"default_left":[0,0,0],"id":149,"left_children":[1,-1,-1],"loss_changes":[2.7153943E-2,0E0,0E0],"parents":[2147483647,0,0],"right_children":[2,-1,-1],"split_conditions":[-7.336592E-2,-2.1706667E-2,2.5816504E-2],"split_indices":[4,0,0],"split_type":[0,0,0],"sum_hessian":[2.339441E0,1.2677047E0,1.0717363E0],"tree_param":{"num_deleted":"0","num_feature":"10","num_nodes":"3","size_leaf_vector":"1"}},{"base_weights":[-2.1739833E-3],"categories":[],"categories_nodes":[],"categories_segments":[],"categories_sizes":[],"default_left":[0],"id":150,"left_children":[-1],"loss_changes":[0E0],"parents":[2147483647],"right_children":[-1],"split_conditions":[-6.52195E-4],"split_indices":[0],"split_type":[0],"sum_hessian":[1.8451158E0],"tree_param":{"num_deleted":"0","num_feature":"10","num_nodes":"1","size_leaf_vector":"1"}},{"base_weights":[-2.9983872E-3,-9.576993E-3,7.837662E-3],"categories":[],"categories_nodes":[],"categories_segments":[],"categories_sizes":[],"default_left":[0,0,0],"id":151,"left_children":[1,-1,-1],"loss_changes":[3.4384474E-3,0E0,0E0],"parents":[2147483647,0,0],"right_children":[2,-1,-1],"split_conditions":[-3.7905937E-1,-9.576993E-3,7.837662E-3],"split_indices":[3,0,0],"split_type":[0,0,0],"sum_hessian":[2.0916564E0,1.0011889E0,1.0904676E0],"tree_param":{"num_deleted":"0","num_feature":"10","num_nodes":"3","size_leaf_vector":"1"}},{"base_weights":[4.6418225E-3,-2.156172E-2,2.573931E-2],"categories":[],"categories_nodes":[],"categories_segments":[],"categories_sizes":[],"default_left":[0,0,0],"id":152,"left_children":[1,-1,-1],"loss_changes":[2.6843917E-2,0E0,0E0],"parents":[2147483647,0,0],"right_children":[2,-1,-1],"split_conditions":[-2.0197816E-1,-2.156172E-2,2.573931E-2],"split_indices":[9,0,0],"split_type":[0,0,0],"sum_hessian":[2.3299246E0,1.2581369E0,1.0717878E0],"tree_param":{"num_deleted":"0","num_feature":"10","num_nodes":"3","size_leaf_vector":"1"}},{"base_weights":[-4.616628E-3],"categories":[],"categories_nodes":[],"categories_segments":[],"categories_sizes":[],"default_left":[0],"id":153,"left_children":[-1],"loss_changes":[0E0],"parents":[2147483647],"right_children":[-1],"split_conditions":[-1.3849884E-3],"split_indices":[0],"split_type":[0],"sum_hessian":[1.830547E0],"tree_param":{"num_deleted":"0","num_feature":"10","num_nodes":"1","size_leaf_vector":"1"}},{"base_weights":[-1.0314124E-3,-8.470871E-3,7.699774E-3],"categories":[],"categories_nodes":[],"categories_segments":[],"categories_sizes":[],"default_left":[0,0,0],"id":154,"left_children":[1,-1,-1],"loss_changes":[2.9620214E-3,0E0,0E0],"parents":[2147483647,0,0],"right_children":[2,-1,-1],"split_conditions":[-3.7905937E-1,-8.470871E-3,7.699774E-3],"split_indices":[3,0,0],"split_type":[0,0,0],"sum_hessian":[2.0804427E0,1.0018775E0,1.0785652E0],"tree_param":{"num_deleted":"0","num_feature":"10","num_nodes":"3","size_leaf_vector":"1"}},{"base_weights":[4.9010417E-3,-2.1372236E-2,2.4091085E-2],"categories":[],"categories_nodes":[],"categories_segments":[],"categories_sizes":[],"default_left":[0,0,0],"id":155,"left_children":[1,-1,-1],"loss_changes":[2.4750229E-2,0E0,0E0],"parents":[2147483647,0,0],"right_children":[2,-1,-1],"split_conditions":[1.6942075E-1,-2.1372236E-2,2.4091085E-2],"split_indices":[7,0,0],"split_type":[0,0,0],"sum_hessian":[2.314471E0,1.1790531E0,1.135418E0],"tree_param":{"num_deleted":"0","num_feature":"10","num_nodes":"3","size_leaf_vector":"1"}},{"base_weights":[-3.080181E-3],"categories":[],"categories_nodes":[],"categories_segments":[],"categories_sizes":[],"default_left":[0],"id":156,"left_children":[-1],"loss_changes":[0E0],"parents":[2147483647],"right_children":[-1],"split_conditions":[-9.2405436E-4],"split_indices":[0],"split_type":[0],"sum_hessian":[1.8229825E0],"tree_param":{"num_deleted":"0","num_feature":"10","num_nodes":"1","size_leaf_vector":"1"}},{"base_weights":[-2.374971E-3,-7.951641E-3,7.120447E-3],"categories":[],"categories_nodes":[],"categories_segments":[],"categories_sizes":[],"default_left":[0,0,0],"id":157,"left_children":[1,-1,-1],"loss_changes":[2.5640072E-3,0E0,0E0],"parents":[2147483647,0,0],"right_children":[2,-1,-1],"split_conditions":[-1.5932427E-1,-7.951641E-3,7.120447E-3],"split_indices":[2,0,0],"split_type":[0,0,0],"sum_hessian":[2.071071E0,1.0684562E0,1.0026147E0],"tree_param":{"num_deleted":"0","num_feature":"10",